Entity,Dim_0,Dim_1,Dim_2,Dim_3,Dim_4,Dim_5,Dim_6,Dim_7,Dim_8,Dim_9,Dim_10,Dim_11,Dim_12,Dim_13,Dim_14,Dim_15,Dim_16,Dim_17,Dim_18,Dim_19,Dim_20,Dim_21,Dim_22,Dim_23,Dim_24,Dim_25,Dim_26,Dim_27,Dim_28,Dim_29,Dim_30,Dim_31,Dim_32,Dim_33,Dim_34,Dim_35,Dim_36,Dim_37,Dim_38,Dim_39,Dim_40,Dim_41,Dim_42,Dim_43,Dim_44,Dim_45,Dim_46,Dim_47,Dim_48,Dim_49
http://commons.wikimedia.org/wiki/Special:FilePath/Amen_1857_-_First_page.jpg?width=300,-0.56716543,-0.08713277,-0.117516264,-0.40318936,-0.08786958,0.9151576,-0.44635755,1.0700957,0.27135816,-0.9143279,-0.39004406,1.0148972,-1.0107391,0.6430056,0.5383273,-0.9427029,0.0141876135,0.8003067,-0.31143504,0.009609432,0.23055834,-0.8918837,-1.0157717,-0.77673143,-1.0335399,-0.98578376,0.14494652,0.59934634,0.3704286,-0.32482967,-0.970401,-1.1633404,-0.87035,0.47508895,0.92645955,0.18853885,-0.45456854,1.3380215,-0.26603138,0.7862338,0.28909478,1.5724039,-0.81153494,0.52077794,-0.6765493,0.4193969,0.6903066,0.16420734,-1.0977216,-0.8507363
"http://dbpedia.org/resource/Grace_Episcopal_Church_(Wynne,_Arkansas)",0.7870781,0.05413085,-0.79883254,0.87628233,0.6562954,-1.0354998,0.96964335,-0.22576784,0.811735,0.87037987,-0.856065,0.6665939,0.5895858,-0.48478836,-0.56726223,-0.3300857,-0.5430555,-1.2421883,0.81397533,0.75841546,-0.92678636,0.029008392,-0.47370774,0.6982474,0.76775175,1.3777548,0.26313317,-0.98641884,1.2221179,0.6650345,-0.44791514,0.7822003,-0.6587918,0.6247556,-0.13078932,-0.78048605,0.2706101,-0.7106858,1.0951561,-1.1043531,-0.8199868,0.74385995,0.3127633,0.79828596,0.84961176,0.24946989,-0.33025074,-0.9959105,-0.7808763,-0.08179625
http://dbpedia.org/class/yago/Act100030358,-0.2832714,-0.17428435,0.05122678,-0.9036432,-1.1019244,-0.9245478,-0.6126284,-0.2969484,0.91359836,-0.10807257,-0.96341646,1.3712374,-1.1557705,0.8135439,-1.1701224,-1.0846311,-1.1593117,0.9353639,-0.12101403,0.52606547,0.35748252,-0.10906724,0.21399273,-1.3254575,1.1368366,1.1343988,-1.0741127,0.010064439,-0.96785253,0.9885495,1.1708263,0.35348105,-0.6727997,0.94561714,0.6635508,0.15852413,-0.4533389,-0.818818,-0.6671934,1.2184135,1.1125169,-0.6844864,-1.0180305,1.0011668,0.019359628,-0.9051715,-0.8363957,0.85442066,0.10750936,0.51735455
http://dbpedia.org/resource/Khorasaniha_Synagogue,0.0059946724,-0.7717206,0.57055116,1.1911557,-0.70821136,-0.42754522,-0.679058,0.8981316,-0.94195324,-1.0769006,-0.6617646,0.88571495,-0.10396928,-0.3648332,-0.85388196,0.97534406,-0.7507319,-0.8193459,0.069050975,0.045783136,-0.20194791,0.18528421,0.4576138,0.2839234,-0.3176265,0.4064954,1.0214329,-0.26461777,0.13085836,-0.30546293,0.33589238,-0.8916799,0.21630093,-0.64610004,0.39282447,-0.15875408,1.0145723,0.87972516,-0.24182379,0.06791891,-0.41573894,-0.20514353,1.3493694,0.4840193,0.18963215,-1.0358902,0.34770012,-0.17832762,-0.5927183,-1.070916
http://dbpedia.org/resource/Klimov_VK-106,0.35230348,-0.3718281,-0.15943842,0.54486984,-0.4687402,-0.2001537,0.30983064,1.0807514,0.32804263,0.48234007,-0.030342048,-0.6143287,-0.06711649,-0.102207154,0.6601294,0.37485892,0.57681865,-0.13917439,0.339685,-0.85727125,-0.55078787,-1.0373081,-0.8182878,-0.09341067,-0.16105986,-0.66519475,-0.55669063,-0.16377775,-0.9894624,-0.052395787,-0.09032192,-0.9164753,0.53688693,-0.9343395,-0.15768641,0.30668965,0.04261633,-0.6609467,0.38189745,-0.874233,0.25329116,-0.84452236,0.047186848,1.1572351,0.2938685,1.0245336,0.3871369,0.10984383,-0.534195,0.33759367
http://dbpedia.org/resource/God's_Mistake,0.41626984,0.254266,-0.5588571,0.18816847,0.49216187,-0.76080024,0.15239546,-0.054273423,-0.13454984,1.0174497,1.0693007,0.6014475,1.1493268,0.4353869,1.2969686,-0.9071329,0.6962383,0.31470126,0.44585058,0.21532974,-0.40273768,0.80177575,0.36509696,0.41128898,-0.1310526,1.4754426,-0.97686636,-0.4556558,-1.0585239,-1.0351216,-0.18074912,-0.56069386,1.2582644,-0.051924065,0.06761227,-0.4590164,1.1268748,-0.7113657,-0.33342132,1.217115,-0.61103696,-0.07513219,0.36704573,-0.026829485,0.4530719,-0.25705156,1.231844,-1.0433611,-0.325955,1.15669
http://dbpedia.org/resource/Breck_Shampoo,1.2381468,-1.2399434,-0.13914877,-1.735419,0.33635575,-1.477417,0.7566726,0.49829084,-1.6850703,1.5460151,0.40737087,-0.5541199,-1.3787085,-0.6262416,-0.653804,1.4993074,1.4141527,0.5584969,1.6465684,-0.10291065,-1.3293705,0.8305312,0.09987316,0.9020829,-0.34666532,1.187068,-1.0806628,-0.5395515,1.5724165,-1.5367372,-0.9318296,-0.8134291,0.2889276,-0.94628686,-0.6227292,-1.2833533,1.3109103,0.4614529,-0.4725258,0.037612755,-0.950472,0.78563374,1.0083897,-0.70734215,0.9765468,0.31644198,-0.7115327,-0.5713466,-0.73356354,-1.2270131
http://dbpedia.org/resource/Bossingham,0.53561336,-0.65205795,-0.23389602,-0.961936,-1.227051,0.99842924,0.53473425,-0.011940136,0.98396546,-0.23200847,-0.13707116,-1.0103146,0.74529845,0.65328693,-0.30904642,0.75035965,-1.1277131,0.67761683,0.46986553,-0.10636581,-0.34653744,0.19389573,0.62855566,-0.5429587,1.3462673,0.7481028,1.0145118,0.0085741,-1.2823758,0.6701733,0.10289749,1.0868083,-0.10444519,-0.10858694,-0.19226298,-1.3009195,1.0012413,0.5286445,0.04227076,0.13310376,-0.34651262,-0.62924176,-0.27419925,-0.0672978,-0.69457793,0.31725892,-0.25950974,-1.0580572,0.6841634,-0.04512441
http://www.w3.org/1999/02/22-rdf-syntax-ns#Property,0.30947983,-0.29695663,0.09459633,0.25198647,-1.8519696,0.23839572,0.28112915,0.43026066,-1.2518884,0.06134805,0.72267014,-0.5269031,-0.9332618,-0.075255044,-0.15708286,0.6750223,-0.12161098,-1.6459099,0.09816967,0.6399571,-0.24662736,-0.55723023,0.5362189,0.3044219,-0.50416094,-0.14680907,-1.0053235,-0.47643828,-0.008064557,-0.39104474,-0.5283709,-1.0251667,-0.23878819,-0.5202586,-0.86283547,-0.42769864,-0.059530094,-0.67429686,-0.18574029,1.0243881,0.34350008,0.5421416,0.66715384,1.242592,0.27040705,0.22370248,-1.0114452,0.22508585,-0.20254749,-0.30980965
http://dbpedia.org/resource/Syd_Walmsley,0.08810193,-0.5992824,-0.5438998,0.23693925,0.8353172,1.0074104,-0.14281322,-0.23785435,-0.85440904,0.29376915,-0.9259272,0.88443375,0.989393,-0.7413566,0.5596569,0.5214119,-0.23263478,-0.49830264,0.6970123,0.050495915,-0.6873387,0.21496326,0.5652597,0.80002844,0.40774208,0.6464051,-1.0806031,-0.76454866,0.48828417,-0.046385977,-0.63747615,0.9969523,0.27605778,0.26045087,-0.89011425,-0.5778142,0.10827238,0.15328556,0.93890107,-0.24486628,-0.002328073,-0.74439085,0.98579234,-0.8699329,0.6124298,0.0875414,0.2398169,0.2940165,-0.41638118,-0.521373
http://dbpedia.org/resource/Æthelburh_of_Wilton,0.93058777,-0.8485299,-0.8753416,-0.45610175,0.2012478,0.78088665,0.8757729,0.92891324,0.7784649,-0.55270696,-0.33047193,-0.14208436,-0.24089128,-0.3021768,-0.2632288,-0.97969514,-0.365847,-0.3033221,0.18941171,0.019702416,-0.16017376,-0.9074925,-0.25946996,0.2265405,0.32803857,-0.4129677,0.32316875,-0.21653642,0.29676563,1.1069089,0.70049906,1.4893401,-0.81139,1.0295082,0.6771871,-0.079977304,-0.32478985,-0.38491797,-0.26302603,0.3529776,-0.24173334,-0.85264975,-0.65808797,-0.84046394,0.22176929,0.8510435,0.62269306,0.39944008,-0.113645904,0.31973276
http://dbpedia.org/resource/Ernest_Thayer,-0.71852034,0.4832835,0.030085394,-1.1563184,0.53937787,0.77958524,0.035406385,0.022534927,0.7301855,0.065832034,0.19762227,0.3961627,-0.005870057,0.54025596,-0.2246663,-0.045768242,0.432777,1.2669272,-0.20739943,-0.9744663,-0.07096238,-1.1894039,-1.1787596,1.4106246,0.21039377,-0.30764362,1.1588713,-0.15962006,-0.83147943,0.04810472,0.54031384,-0.1811723,0.28916097,0.114343025,-0.2322063,-0.4870862,-0.5582595,0.479842,1.5150611,0.6482602,-0.71695995,-0.017247329,0.64624935,0.532882,-0.6489356,-0.23023729,0.26590392,-0.8276766,0.02492957,-0.18627393
http://www.wikidata.org/entity/Q40231,-0.55669135,-0.46573338,0.26250997,0.6737263,-0.4075138,-0.22771364,-0.16310075,-0.6749914,1.6516677,0.5372164,-1.3209,-0.60860366,-1.3651278,0.47997594,0.6811746,-1.7010881,-1.812689,1.5238695,-0.3499543,-0.78538126,0.33684123,-0.9637091,-0.8931483,0.53409684,1.0390431,-0.91188073,0.63349396,0.2132648,0.46062467,-1.1500301,0.6662846,1.0948541,-1.2284683,-0.3308571,0.7571972,0.4245053,-0.46929908,1.1265773,0.81468415,1.5357003,-0.20510602,0.9017121,-1.3036997,-0.24255453,-0.5091554,-0.4182796,1.3218529,-0.57032233,0.30719092,0.5377928
http://dbpedia.org/resource/2021_Louisville_Cardinals_men's_soccer_team__Sander_Roed__1,-0.020290803,-0.0005827773,-0.1007445,0.87927985,-0.6676419,0.79510164,-0.012969831,0.28739634,-0.048486866,0.5766754,0.337632,-0.26744786,0.3599948,-0.04473855,1.3027048,1.6789885,0.0656684,0.95846814,0.015759422,1.0176473,0.05149469,-0.7430498,-0.16063619,0.0992465,0.2723029,0.5169265,0.0050837277,-0.1370389,-0.008110983,-0.96830547,0.18312496,-0.35648885,0.78007424,-0.7967844,0.06564114,0.016912859,-0.045746785,0.38775548,-0.12768914,-0.4301905,-0.6663282,1.0851172,0.9903719,0.40372506,0.080025695,-0.014633386,-0.46029362,-0.637892,-0.08540826,-1.370581
http://dbpedia.org/resource/Quince's_Scenicruisers,-0.32527015,-0.47857413,-0.0066027953,0.46628085,-0.3611247,-0.60067964,-0.059770804,0.7669379,-0.14063482,-0.6334034,-0.36192533,1.2353506,-0.19886748,-0.7495098,-0.035937946,1.0208323,-0.96585774,-1.4809371,0.13888387,-0.22417505,-0.3805111,0.18749802,0.5455249,1.0512714,-0.40724584,-0.056529295,0.3610339,0.11284963,-0.26482752,-0.34645185,1.0519664,-0.74954414,0.6392078,-1.0440892,0.06945156,-0.26579368,0.7321108,0.23651394,-0.69381064,0.12921241,-1.0010177,-0.030343996,0.42290577,-0.36280936,0.24643293,-0.6545579,0.69672096,-0.4122357,-0.23413001,-0.18055649
http://en.wikipedia.org/wiki/Ousmaïla_Baba,0.23862687,0.7368135,-0.23058155,-0.64893633,1.1157163,0.67011994,0.15607883,-0.8761277,-0.09105573,0.35902688,0.9592317,0.08248296,0.7223892,0.6782951,-0.097238466,0.6863122,0.5491683,0.061755907,0.12822114,-0.5889454,-0.12518239,0.6487068,0.70793164,0.34403846,-0.48547727,-1.0981965,0.32431492,0.8461328,0.48238578,-0.2331832,0.70575374,-0.33260047,0.5550263,-0.55251145,-0.8952412,0.08776661,0.24656731,-0.29260188,0.43462113,0.39495006,-0.5925461,-0.61075205,0.51057076,-0.5052741,0.08740402,0.38705376,-0.16248485,-0.2436719,-0.11111641,-0.4857161
http://dbpedia.org/ontology/OrganisationMember,-0.4361947,0.35830525,1.7831974,-0.3239555,0.20021772,0.39823607,-1.1427768,-0.12905338,0.49129608,-0.5784945,-1.5086282,0.26215914,1.9235537,-1.4249042,-0.4362017,-0.10987243,-1.5529305,0.5964882,-0.61143166,-1.4234954,1.0089716,-0.0011326192,-0.93408364,-0.25799412,-0.9040347,0.512669,0.16586111,0.94153947,1.5153465,0.12004374,-0.22011484,-1.1104488,0.74593484,0.78740805,-1.3332396,0.41760096,-1.0511192,1.9660292,-0.83325535,-0.45786524,0.7969912,-0.09242832,1.1695246,-0.40220866,-1.4452795,-0.024730854,0.65571994,-0.17018053,0.95466304,0.67802495
"http://dbpedia.org/class/yago/WikicatBuildingsAndStructuresInMiamiBeach,Florida",-1.6060466,1.0663993,0.07373809,-0.1473066,0.7785815,-0.5527454,-0.076144926,-1.5481917,0.067327306,-0.37470296,0.1307456,1.2835833,-0.99711317,0.09284943,0.44984275,-1.3724972,-1.0161448,-1.2652477,-1.077639,-0.04599943,0.18837845,1.0320882,0.040267162,-1.5390546,1.6223282,0.89713573,0.88788146,0.97734296,-0.1349021,-0.39509255,-1.0047297,0.20707737,-0.41076145,-0.44971895,1.0988635,1.0593462,-1.2100109,1.3124177,0.56494695,-0.06426098,1.128452,0.078258164,0.38536215,-0.5668972,0.01612365,-0.7112117,0.60247,1.4253832,1.1549219,-0.042588897
http://dbpedia.org/resource/1906–07_Istanbul_Football_League,0.86120164,0.14495015,-0.17768517,0.26169246,-0.91881937,1.0511655,0.41432297,-0.39619133,0.1523617,-0.012261862,-0.8635172,0.56720006,1.1928443,-0.051478755,0.23203951,-0.45082363,-0.6861866,-0.8004327,0.8387336,0.43830028,-0.6631164,-0.051326144,0.54553735,0.714978,0.9991023,0.3914027,-0.60230005,-1.0588043,0.9742237,-0.36659876,0.5372571,0.08348381,-0.5590441,-0.39478156,-0.5829026,-0.8372327,0.516633,-0.70308685,-0.46975914,0.76763177,0.81038225,-0.6554829,0.3431247,1.0950316,1.350998,1.1301297,0.7008814,0.38771537,-0.9954854,1.1371992
"http://dbpedia.org/class/yago/WikicatPeopleFromMelrosePark,Illinois",0.4199305,1.4154826,1.0977225,1.3928605,-0.27852714,-0.8764718,0.51472193,-0.22241151,0.07773856,-0.6044285,-0.5980876,0.61552227,0.99927044,0.007056783,0.19275135,-0.25672406,-1.6707234,-0.2989124,-0.59129274,-0.5580631,0.73199266,0.5536325,-0.9482578,0.5048475,-0.27084473,-0.41521063,-0.82000023,-0.41352025,-0.34117025,-0.7175392,-0.39057657,-1.1828308,-0.44784555,-0.63151836,0.8995836,0.22630961,-0.10564603,-1.0142598,-0.22714603,1.3064858,-0.011809102,0.050529473,0.8124844,-0.66814524,-0.2593583,-0.91279525,0.3999739,0.026880577,0.849415,0.76815003
http://en.wikipedia.org/wiki/Elizabeth_Ibanda-Nahamya,-0.7093949,0.7404962,0.29806346,-0.33920133,0.3939667,0.29203916,-0.6807618,-0.8417742,0.06322089,0.6195184,1.0306882,-0.19481468,0.90390575,0.53864825,0.09898793,0.3285234,0.88765043,0.14455995,-0.25962397,0.096694775,0.68207747,0.8751697,0.27272975,-0.51350933,-0.20621005,-0.9257115,-0.3119781,0.7837653,0.018405512,0.18582878,0.2788991,-0.22145456,0.30936852,-0.5724956,-1.0241597,0.78063095,-0.115731545,0.2217278,-0.015038168,0.07020278,-0.53483164,-0.08661322,0.09486602,-0.014429335,-0.72222686,-0.4231383,0.62355024,0.14479548,0.34657302,-0.18494289
http://dbpedia.org/ontology/Eukaryote,-1.0299277,0.7043764,0.9329802,1.8014876,-0.07536439,-0.7135292,-2.6815593,-1.8483193,0.35613433,-2.3681996,-1.30267,0.66646487,0.17995529,-0.4253215,-1.4812928,0.58413315,-2.0142534,-0.8657467,-1.4105712,0.8112528,2.3596792,1.4040372,-1.0125912,-0.60378075,-0.6151492,-0.9595611,0.6414735,-0.4148078,-0.29228082,2.4837832,-0.58847564,-0.6631677,-1.21252,1.8407166,-0.5669873,1.2408621,-2.4892554,-0.2162601,1.2555109,-0.65280455,0.7788099,-0.68419933,-0.4544784,-0.84063464,-1.5583451,-0.771627,0.09935335,0.026123224,1.8373262,0.72128433
http://dbpedia.org/resource/Abdolkarim_Soroush,0.75516206,-1.184654,-1.0333629,1.3735645,-0.93044394,1.0502598,1.1815877,0.6309844,-1.6464865,1.028472,0.6257279,-0.26797187,0.97922134,1.5390304,1.0976738,1.7666829,0.98405725,-0.8430428,1.1117961,0.95266503,-1.168921,-1.0904751,0.13657308,1.3639159,-0.5575563,-0.6882977,1.2243538,-1.0611482,-0.036248617,-0.9691884,-0.17917818,-1.3445245,0.4858485,-0.4375561,-0.4358659,-0.17071337,-0.23226261,-0.6306847,1.3626761,-0.8424063,0.45643267,-0.106618546,1.4934402,0.010563978,-0.27210483,1.6053998,-1.2044748,-0.930581,0.3338499,-0.96177673
http://dbpedia.org/resource/Babylon_5:_Dark_Genesis_–_The_Birth_of_the_Psi_Corps,0.20017588,0.0727425,0.084765494,0.45717487,0.0745854,-0.46234873,-0.3044861,-0.21737449,-0.52989805,-0.7556591,1.5729083,0.50965667,0.81896156,1.2870293,-0.83790845,1.4208069,0.595197,-0.33989283,0.27796498,-0.49692124,-0.01577295,1.103439,0.96535075,0.48416293,-0.7465458,-1.8150691,0.07708819,-0.716994,-0.3016135,0.40837842,1.0655818,1.5616198,0.010121813,0.43910807,1.1918751,-0.009769308,0.5826418,-0.17405291,0.96665365,1.4565152,-0.29229605,0.3423537,-0.8422529,-0.14349023,0.18961169,-0.65597266,0.84748924,0.6742604,0.048054796,-0.6873712
http://dbpedia.org/class/yago/WikicatGermanFootballers,-0.2831946,0.63083494,0.9366376,0.8242992,0.64828634,1.09405,-1.0877239,0.16406964,-0.6956104,-0.060868952,-0.8370103,0.055548005,-0.3400167,-0.21929033,0.030654782,0.68572754,0.46639556,-0.70233953,-1.0638312,0.7647551,0.7999216,0.16728383,0.27626708,0.21069244,-0.7579059,-0.26153404,-0.83943754,0.6310234,0.762438,-0.6920356,-1.2214252,0.4365406,-0.031066595,-0.36844113,-0.3714103,0.8671368,-0.36610845,0.68661577,0.37236118,-0.62368965,-0.25709397,0.48781654,-0.21938466,-0.41045344,-0.25793132,0.27322045,0.16219702,-0.35024896,0.11887487,-0.72224045
http://dbpedia.org/resource/Rapthi_Kerkoven,0.2201146,0.84078324,-0.26115417,0.6544035,0.53207743,-0.2557179,0.22852716,-0.35552818,-0.5512135,0.3187149,-0.07706721,-0.018928388,0.2954195,0.5390211,-0.21168244,-0.1475935,0.4786456,-0.107204415,0.0110842325,0.39600375,-0.19401741,0.30345532,0.10329719,0.08469469,-0.42365837,-0.39563423,-0.32284167,-0.11998934,-0.72268015,-0.35618114,0.28413916,-0.6683068,-0.207945,0.1710143,-0.32636115,-0.031328924,0.390886,-0.17811982,-0.38260058,0.37336418,-0.40501747,0.57936823,0.27848935,0.9353884,0.14268522,0.13648364,0.09175451,-0.5898224,-0.16690242,-0.63248265
http://dbpedia.org/class/yago/Traveler109629752,-0.5257504,-0.20828354,-0.653778,1.8284874,-0.9006228,0.69928986,-0.26198798,-0.2554725,-1.0747389,0.17767386,-0.67108446,-0.83396465,-0.78568053,-0.36351085,-1.0530281,0.61967134,-0.08584251,0.35282713,-0.13867101,0.09832404,-0.35379955,1.6164615,-0.95232284,-0.9700876,-0.25404316,1.3279041,-0.6859021,-0.63731986,0.14087461,-0.5031791,0.37850994,1.3604531,-0.62595624,0.15504876,0.65213525,-0.46653903,0.9559897,0.4422691,1.1780931,0.3574563,-0.8330062,0.09622174,1.0101947,-0.6144602,-0.5959486,0.13689254,-1.9182177,-0.16666363,-0.25936547,-0.11174624
http://dbpedia.org/resource/Żakówek,0.38265046,0.031660367,0.16122885,0.24394521,-0.117073625,-0.94641376,0.73066884,-0.24526468,0.2409111,0.6784661,0.4571454,0.33599976,-0.29741493,-0.09781004,-0.72312284,0.8204643,-0.27009475,-0.031957548,0.70215404,-1.0121967,-0.77807397,0.91272324,-0.8073762,-0.43578395,-0.38792208,0.7107097,0.31319928,-0.62899095,1.1690922,0.012083343,-0.1288542,0.3878719,-0.52937585,0.11687181,-1.0721993,-0.88343745,-0.7479728,-0.044600274,-0.8519313,0.040010396,0.39059252,0.033466347,-0.63444906,0.044092968,0.89809793,-0.015404088,-0.57701206,-0.4089521,-0.7346718,0.9419399
http://dbpedia.org/class/yago/Instrumentality103575240,-2.296662,1.8795537,0.4498488,-0.14744502,0.19881186,1.6240871,-1.7468603,-0.6560934,-1.0149091,0.50399035,0.5514065,0.8572479,0.2332131,1.0766886,-0.042591162,0.5456377,0.8305926,1.3209485,-0.87168765,-1.1457992,0.04517777,-0.3730991,-0.13521014,-1.7961019,2.008654,0.90080756,0.5430259,0.16454756,1.3576553,0.8489213,1.8191849,1.5712254,-2.5724046,1.9175539,-0.4681657,-0.012574611,-2.1380143,0.45123503,-1.3983973,2.0961843,-0.3113632,-1.8616705,-0.954374,-1.2442847,-1.6707088,-1.7572118,-0.21025826,-0.42906103,0.64922696,-0.3050304
http://en.wikipedia.org/wiki/Msasa,0.12016475,1.0108563,-0.07718343,0.26838166,0.71874803,0.26734358,-0.10239775,-0.045829885,0.77047485,0.4307566,0.5609431,0.0020071098,0.9396148,0.27836514,1.3648672,0.69646335,0.85723805,-0.19341661,0.08411636,-0.7288336,-0.04137116,1.1474124,0.8547625,-0.4194124,-0.5415739,-0.66603494,-0.7279489,0.33253747,0.16447234,-0.16830036,0.5781367,0.61034274,-0.15134776,-0.9506703,-0.6924796,0.37667286,0.17222165,-0.061032657,-0.4206757,-0.42059532,-0.7461882,-0.9154013,0.06883269,-0.59670156,-0.19012341,-0.15061001,0.5792554,0.6366864,-0.1533759,-0.5496939
http://dbpedia.org/ontology/TimePeriod,-1.3341985,2.031489,2.707231,-0.6740476,0.41719177,0.29120773,-0.34042308,-1.2028669,0.94282913,-2.7725134,-1.8276467,-0.111715116,0.31108266,-1.799851,-2.2671125,-1.752887,-1.6245744,1.0574495,-0.5554213,0.26851168,0.92209667,2.1767888,-0.581273,-1.9277465,-0.35735708,-0.45654497,0.016371978,0.24692102,0.44499293,0.81361866,1.8122054,0.26136723,-0.25466573,1.2172462,0.8605327,1.9248271,-1.9089068,-0.40039226,-0.8795677,2.058611,1.3111032,-1.8782847,0.4163498,-1.0588874,-2.8861525,-0.7055553,-1.4463568,0.08723065,1.1582618,1.2670832
http://dbpedia.org/resource/Panteleimon_Romanov,0.34808454,0.36312,-0.5483382,1.5463096,-0.1389111,0.6962971,0.5991831,-0.585943,0.78100014,-0.9740391,-0.73126435,-1.3483056,-0.31510553,1.7137198,-0.21828397,-0.3514772,-0.41971996,-1.7250394,0.4275744,-0.61956304,0.091891415,-0.93723166,-0.62041503,-0.033386845,0.036008533,-0.31252944,1.7299771,-1.271494,-0.0038253032,0.46702513,-1.2523547,0.15161195,0.5947913,1.0366961,-0.45506346,-0.20679654,-0.6016605,0.10728544,-0.49187896,-1.0230417,0.83463967,0.0016560663,0.31812248,-0.6575152,0.58722603,0.42420265,0.8192195,0.73310745,-0.4021494,0.6605374
http://dbpedia.org/resource/Arthur_Caíke__CareerStation__1,0.7191076,-0.41566887,0.27967405,-0.1289356,-0.6331397,1.1774302,0.14485386,0.24642327,0.18546504,-0.08355859,-0.7897981,0.99694383,-1.1860095,-0.42816424,0.6587562,0.775249,0.006290151,-0.41612145,0.9229042,-0.4289464,0.014525114,-0.3805922,0.68084544,0.5317205,-0.043173958,0.12024463,-1.3044972,-0.33184686,0.40389597,-0.18393831,0.3141892,0.4452531,0.2847068,-0.39291173,0.17286362,-0.44391933,0.21816695,-0.33311373,0.6696358,-0.57828474,-0.24633697,-0.10740797,0.80169433,0.40075454,0.52913064,-1.1131772,-0.7766144,0.42357168,0.2625583,-0.584132
http://dbpedia.org/resource/Great_America_(VTA),0.44893095,-0.006752025,-0.60137707,-1.276276,0.5399339,-0.28115368,1.1864235,-0.5056659,-0.32532817,1.3216304,0.0679562,-0.2802428,-1.308957,1.4188395,-0.6052754,0.101991124,0.75559324,0.5915236,0.5526741,-0.68018794,-0.59743476,-0.9447586,1.2121913,1.2565722,-1.2583209,1.2192117,-0.02450256,-0.049053382,0.37548512,0.20837516,-1.1326618,-1.22816,1.3300941,0.41939148,0.6375834,-0.9874035,0.59606063,0.8388818,1.379991,-0.8022383,-0.19414581,0.5705192,-0.5483755,-0.067089975,0.45609576,-0.06924323,0.64597636,-0.3522158,-0.588283,-0.018343953
http://dbpedia.org/resource/Bryan_Habana,0.19680354,-0.40436843,-0.60240245,-0.47931027,0.52407837,0.6953298,0.55305475,0.39401975,-0.84759873,0.2863988,0.25660196,0.0893591,-0.5261005,0.45076796,0.010891791,0.33317044,-0.0007847297,0.15575899,0.23853542,-0.7359305,-0.25591078,-1.3191137,-0.6137479,1.3014538,0.4287007,-0.26098365,0.97532207,-0.118692674,-0.6755598,0.4383706,-1.4942914,-0.93497103,0.3936826,0.633708,1.0827582,-0.14239976,-0.33013824,0.33288226,1.4220337,-0.26988858,0.76565653,-0.11345482,-0.26528576,0.18362787,-0.6534084,0.22784759,0.7015116,0.29024753,0.38239738,-0.14489569
http://dbpedia.org/resource/Thomas_Grey_(poet)__Thomas_Grey__1,1.6978116,-1.031758,-1.0175414,0.03989008,-0.091058835,-0.9084915,1.27121,1.1164448,-0.09987946,0.60807306,-1.2841403,-0.35826284,0.90400666,1.7006418,0.4896236,1.348456,0.234256,0.1085006,0.5583538,-0.12094479,-0.5840088,-1.0698388,0.36016697,1.3317782,-1.3113,0.99525577,-0.5672382,-1.573083,0.6260615,-0.21251088,0.41892293,-1.654175,1.8356054,-1.1082523,-0.7359283,-0.74428475,0.99134845,-0.6127189,1.0836219,-0.40636238,-1.7949015,0.8760084,1.0939606,0.9226124,1.3783679,0.55284566,-0.6727378,-1.2069702,-0.8393178,-0.7462361
http://dbpedia.org/resource/José_Leclerc,-0.677889,0.54591334,-0.6251479,-0.24314068,1.0443233,0.08732737,0.37346178,-0.17024979,-0.4758097,0.7866249,0.093133256,0.1300119,-1.1095365,0.4826624,-0.9986048,-0.9852763,0.5648808,1.1112835,-0.016921788,-0.071554445,-1.3171021,0.10727993,-0.47875935,-0.20169528,1.0909436,0.44348165,0.28128383,0.47246474,1.3294182,-0.6262893,0.6523994,0.8458934,-0.6073992,0.70203984,-0.7335317,-0.38826638,0.07406368,-0.042694744,-0.53514814,0.62872654,0.31229135,-0.5239713,-0.47552943,-0.055294953,0.5812644,0.6971283,-0.10229892,-0.010285056,0.5568406,-0.1344275
http://dbpedia.org/resource/Dru_Rock,-0.36628377,0.17791268,0.48791105,0.308464,-0.55556524,-0.5732521,0.16527608,0.9684447,0.43499595,-0.45875922,-0.26409996,-0.36795703,-0.9964795,0.6397638,-0.23729454,1.0442848,-0.3574668,0.49028516,-0.5989134,0.27876735,0.24488036,-0.3650516,0.68881094,0.1307624,0.59366906,-0.711421,-0.58476317,-0.11749224,-0.8846314,-0.85237396,0.23937246,0.51328355,-0.2815758,0.44426286,-0.3182124,0.6309393,-0.58414924,0.28355795,1.0212927,0.2855532,0.30220935,-0.9555632,-0.32181257,-0.25399536,-0.48447633,0.33881587,0.06464275,-0.25980058,0.43005502,0.3888413
http://dbpedia.org/resource/Pleš_(Aleksandrovac),1.176376,0.7638518,-0.28385115,1.8370848,1.6720699,-1.0241483,1.4469646,-0.5157244,-0.10919313,-0.032895148,-0.51319134,-0.40955427,-1.0839435,-0.966946,-1.2860909,-1.5015072,0.49149904,0.8148149,0.40886062,0.75734305,-0.335116,1.2875854,-0.3970905,1.2827318,-1.0026206,-0.76037186,0.10985199,0.20909339,-0.8979061,-0.542785,-1.2385767,-0.41060066,-1.5243881,0.39927486,0.21641108,0.22064058,0.5976439,1.7498138,-0.53423005,-0.024911685,1.3923489,-1.491544,0.17013937,1.5198413,-0.2892254,1.535014,0.20874909,-0.34549928,-0.6798176,1.5936371
http://dbpedia.org/class/yago/AdministrativeDistrict108491826,-0.42197457,-0.5117287,0.50725055,0.62481886,0.3169803,-0.9609272,-0.42889905,-0.51033956,0.5312076,0.11520417,-0.15903337,0.8290103,1.3162723,1.0242417,-0.1325718,-0.0048367954,-1.675719,1.3828,0.05015513,-1.1853619,-0.52285075,-0.21778052,-1.0308858,-0.52716804,-0.41997454,0.9870937,1.332957,1.1748708,-0.017503217,1.2884887,1.6518077,-1.5036327,-1.5280162,0.96154034,0.34546238,-0.33123058,-1.2668811,-0.43286526,-1.009156,0.55800104,0.33664972,0.42613244,-0.25761902,-1.7139475,0.19463627,-0.7387934,-1.2984178,0.45717347,-0.21005781,-0.18857242
http://en.wikipedia.org/wiki/Intombi_River,0.2038197,1.0595677,0.3366264,-0.3055798,0.21682602,0.20355244,-0.32075664,-0.9328895,-0.2512441,0.41436887,0.853461,0.21292876,0.9182128,1.0531685,-0.21212545,-0.37032804,0.34173533,-0.21901694,0.38686553,-0.21123408,0.33016947,0.9428038,0.33230445,-0.8525184,-0.36219,0.26607183,-0.39038607,0.21237704,-0.383782,0.32888514,0.3313553,0.330742,0.36715168,-1.0012128,-0.8987427,0.353811,0.3031163,0.07016025,0.32929426,0.29888532,-0.85861456,-0.8331581,0.29888585,-0.32726318,-0.16387135,-0.2806044,-0.24021904,-0.22355711,-0.2058524,0.21037938
http://dbpedia.org/resource/Chaourse,-0.37229016,-0.8998227,-0.25346956,-0.4006817,-0.47280037,0.35825807,0.2556288,0.9753276,0.51586884,-0.29413345,-0.009269275,0.1279543,-0.7874977,0.8257948,1.5803217,-0.38973638,-1.0138968,-0.38572484,-0.44546902,0.66870415,-0.47701254,-0.715969,-1.0262018,0.06272892,0.35394955,0.77404016,1.0229768,-0.4025168,0.55886877,0.08083176,-0.18563513,-0.70314914,0.26340806,-0.09942397,0.38946766,-0.08763362,0.42325106,-0.9560845,-0.38874972,-0.47853,-0.78237283,0.781005,-0.6244457,0.29326168,0.30297503,-0.38296542,-0.10031348,0.45674956,-0.3862828,-0.5191828
http://en.wikipedia.org/wiki/Sultanah_Aminah_Hospital,-0.3247088,0.085915856,0.18676278,-0.15045321,0.37275505,0.062114865,-0.2995935,-0.20205668,1.6181642,0.19702111,0.31046817,-0.093222864,0.5684949,0.93617445,1.1240233,0.56776935,0.80628014,0.4129716,-0.1684205,-0.88633084,0.35744536,1.1353725,1.0770952,-0.25470102,-0.67876595,-0.5223656,-0.47372606,0.35894594,-0.33894745,-0.06330972,0.53474164,-0.045566738,-0.20729011,-1.366673,-0.42105445,0.44671437,1.0234346,-0.44884843,-0.042228155,0.23022696,-1.0805364,-0.38003594,0.32791352,0.020377003,-0.39343214,-0.22679065,0.9749313,-0.8576342,0.3040469,0.259137
http://en.wikipedia.org/wiki/Renault_4ever,-0.57669276,0.6063245,-0.048791423,-0.11870099,0.6404445,0.5442593,-0.022897573,-1.2662648,0.04832013,0.041363,1.2059581,-1.1897675,0.7812396,0.70103586,0.9408091,-0.5912791,0.5746682,-0.01998109,0.059932683,-0.5550301,-0.017567098,0.63677925,1.1290627,-0.03585558,0.6544356,-1.1601199,0.02271254,0.014732554,-0.62187326,0.6598717,0.6723935,0.0038326064,-0.61669755,-0.61275095,-1.2499063,0.056824557,0.19521311,-0.5787343,-0.67896914,0.6861523,-0.100188844,-1.0836091,0.2782363,0.44537762,-0.046178307,-0.6128845,1.1939917,0.003477649,-0.068966426,-1.1067195
http://dbpedia.org/resource/Bix_(website),0.32514542,-0.6781094,-0.22213878,0.6645965,1.1468058,-0.35105672,-0.294673,-0.5204773,0.24867758,1.3617729,-0.21278276,-0.3384853,0.9838027,0.48198774,0.38448948,0.58320326,0.51173455,-0.124061614,0.7490739,-0.6789416,0.3522741,-1.4107445,1.6865538,0.13964002,-0.9827248,-0.58284706,1.1029396,0.34816968,-0.8097941,-0.21260564,0.31111428,-0.38688847,-0.17160235,0.21541499,0.11686006,0.35027513,-0.29204598,-0.39576212,1.0174959,-0.17269126,-0.14918327,0.32532865,0.56598645,-0.94462985,0.18681307,1.4397312,0.74406177,-1.1448984,-1.7284613,0.47929648
http://dbpedia.org/resource/Natalie_Holland,0.9685794,-0.5418883,-0.16256112,1.5481572,-0.26132548,-0.9723821,-0.5194971,0.27014455,-1.5041384,0.90355945,0.5581255,-0.7223779,-0.3091801,-0.055459354,0.29221475,0.3439291,-0.2153924,0.28378248,0.046284035,-0.27218398,0.019859439,-0.29969764,0.21989788,1.4587435,0.8321245,-1.113732,-0.3237696,0.11251541,-0.89434963,0.24947703,-0.38758144,0.51636577,-0.26681766,0.28358912,-0.8217634,-0.9710535,-0.95907867,0.6957775,0.96460706,-0.8444452,0.20691924,-1.5177022,-0.28305677,0.65987366,-0.17454357,0.08871655,-0.44009888,-0.35599005,0.12923943,-0.9043803
http://dbpedia.org/class/yago/WikicatDutchPeopleConvictedOfMurder,0.641425,-0.1810521,-0.86436427,-1.1037748,-0.8439211,0.9976955,0.18223564,0.69623,-0.42353472,0.51598454,0.959843,0.92943376,-1.1117712,-1.3866196,-0.5013352,0.14531511,-1.6041747,2.3715901,0.5731066,-0.5589933,-0.5962007,0.2218662,-1.0978636,0.7341923,2.1402898,0.978423,0.34614426,-0.22906007,1.3870602,0.8292254,1.7103566,2.0937672,-1.5777789,1.1239649,0.5075754,-1.0697122,0.77097136,0.5222605,-1.2859435,0.9979877,-0.19725116,-1.6814293,-0.18598941,-0.29106966,1.0422239,0.9820144,-0.6755112,0.888035,0.026642121,-0.08361918
http://dbpedia.org/resource/Stonehaven_F.C.__Chris_Jolly__1,0.3311879,-0.293726,-0.45850244,-1.1577704,1.1418726,0.6694763,-0.20170207,-0.44698876,-1.8242018,0.11753301,-0.5893074,1.118415,-0.94301873,0.050251346,-0.6839347,-0.19537388,0.95043963,-0.068315975,-0.3034012,1.304387,-1.0723287,0.54938316,-0.2832899,-0.43680617,0.6847047,-0.98416,-0.21739516,0.32572478,0.7708985,-1.8514556,-0.21278754,1.5847118,-0.10996615,1.0048264,-0.19240814,-0.85424614,-0.9677121,0.7480158,0.2566438,0.21049306,0.27659166,-0.63055813,-0.7310768,-0.7499136,0.33281124,1.4493905,-0.46422708,0.24535953,-0.4568807,-1.2334386
http://commons.wikimedia.org/wiki/Special:FilePath/Porto-Novo_skyline.jpg,-0.017086465,-0.827617,0.63564825,-0.29296976,0.18017918,1.1421685,0.22564504,0.7338726,0.5591966,-0.64447343,-0.26193237,0.53850484,-1.1333579,0.2227412,0.41133386,-0.42866632,0.23052613,0.13112961,0.011678084,0.10287279,0.08704181,-0.74626464,-0.39566246,-0.65700656,-0.93201613,-0.43416148,0.13961339,0.0064035878,0.56491715,-0.12297362,-0.86872673,-1.7247187,0.22795293,0.46643254,0.5686298,-0.04182126,-0.52446973,1.3280102,0.6753444,0.2709446,0.74243534,1.406774,-0.7771647,0.8922677,-0.096744396,0.2785366,0.43248302,0.79794776,-0.7729355,-0.52728957
http://dbpedia.org/class/yago/WikicatFCRusichiOryolPlayers,-0.897869,1.0491703,0.61200005,0.46423194,-0.718898,0.6074317,-0.91537595,0.24946083,-0.21918142,-1.5941049,0.30380437,0.34586805,0.24109058,-0.3062147,-1.1046369,0.5759805,0.08483977,-0.755793,-1.4716011,0.15847833,0.354105,0.8326376,0.2165622,-1.0836598,-1.1911792,-0.31217745,0.3228885,-0.05521253,0.2842481,0.9775492,0.6336836,-0.25675842,0.80652475,-0.58143467,0.84595054,1.0247078,-0.043465197,-1.2678852,-1.2391825,1.2430658,-0.35083818,0.9830876,-0.7204131,-0.6404673,-1.0452113,-0.6783212,0.90038025,-0.6409125,1.3723167,0.8940023
http://www.w3.org/2004/02/skos/core#Concept,-1.4894382,-0.3586066,1.0647823,-1.2203726,0.28781936,1.5010921,-1.7220281,-0.0073517277,1.5954251,-2.8167133,-0.7073968,0.99042636,-0.365979,-1.6725832,-2.005112,-0.5894178,-1.2703737,-0.09116363,-2.2573369,-1.07484,2.0232737,1.0211569,-1.5199403,-0.41274038,1.6550586,1.7840745,-0.5816426,0.5649397,0.3728018,0.9489585,1.137648,-0.6981148,-0.03970764,1.3385192,-0.8322086,2.7316105,-1.0264913,-1.3933209,-0.9403289,-0.65454084,1.4066552,0.73787886,-0.34431952,-0.7303017,-0.60281205,-2.1196296,0.4962368,0.16844893,1.6149235,0.24398711
http://www.wikidata.org/entity/Q12323,0.41952917,0.102129996,-0.034532532,0.6388922,0.13701117,-1.1460646,0.41632843,0.12154035,0.5629452,0.36262485,0.07044201,-0.83707154,-1.0555439,0.7693208,-0.09377062,0.33344927,0.07959435,0.48931608,0.117410906,-0.0664969,-0.09805671,0.77997005,-0.037086014,-0.97241557,0.2997428,0.12508796,-0.18445985,-0.22028838,0.7899164,0.26607054,0.4408214,0.021258192,0.015454122,-0.061009627,-0.3483392,-0.2659286,-0.20168343,0.5395332,-0.7019958,0.30429193,-0.5358307,-0.48042527,-0.8619629,0.88371,0.2179602,0.5663719,-0.6737714,-0.5656337,-0.18426163,0.8464693
http://dbpedia.org/resource/Wondae_station,0.597325,0.5804214,-1.0019215,0.80429083,-1.4217912,-1.5411539,1.3476148,0.67124707,-0.058700893,0.043589737,-0.3534577,0.40892887,0.9476663,1.6926897,1.1187626,-0.39071116,1.417872,1.1943583,1.3845626,0.21643084,-1.389223,0.35139152,-0.3193119,0.123723395,0.36992267,1.0348736,1.229629,-1.3029634,-0.08278956,-1.4947912,0.7445658,0.32007748,-0.9629756,-0.83998275,1.5016061,-0.76313025,0.6769492,-0.0061939866,0.4998385,0.4015108,-0.42003775,-0.4152122,0.531599,0.8884155,0.59151447,1.6065906,-0.114947945,-0.14834195,-0.38094917,1.0444959
http://dbpedia.org/class/yago/Symbol106806469,-0.19023831,0.08415872,0.7194799,1.3571422,-1.522557,0.5145107,-0.09149951,-0.57663363,0.9666369,-0.33170253,-1.3030998,-0.56393385,0.7334286,0.05606436,-0.04939891,0.7417279,-0.234253,-1.3862156,-0.5930988,1.0963265,0.68724895,-0.55833423,0.9112605,0.18883401,-0.081268065,-1.2930149,-0.8064311,-0.043052487,-0.3906089,0.6567962,-0.38961154,-0.7493241,0.7783431,0.64684904,0.507621,0.5976514,0.010280406,-0.15956451,-0.32333484,-1.118609,0.029317709,0.888593,0.690833,-0.41574448,-0.42171714,-0.11104676,1.1355036,0.46023536,0.33953604,-0.85960925
http://dbpedia.org/ontology/WrittenWork,-0.83557886,0.20774454,2.303984,0.15092002,-1.1279552,1.1277208,-0.04851194,-1.0451779,-1.6096451,0.62342495,0.50075036,1.2658539,2.009431,-1.5289549,-0.92917794,0.04402611,0.682469,-2.4935682,-0.7638852,-0.29207087,0.7329678,-0.39916855,-0.8170554,-0.4227675,0.28345755,-0.049584787,0.8650593,1.9568918,0.19524756,1.0096198,0.9648255,-1.2055271,0.55934393,-0.2800074,0.35326764,0.59675366,-1.03959,0.6489614,-0.018042117,0.45174444,1.1771119,-1.367458,1.0698417,1.5964315,-1.0059464,-0.46250573,1.2279621,-0.67675036,2.1053872,0.60135376
http://dbpedia.org/resource/2nd_Army_(Kingdom_of_Yugoslavia),1.2108335,-0.07627307,-0.5807743,1.4275763,1.0705128,-0.97038,0.8845773,0.85930043,0.45475513,0.30242494,1.011929,-0.5757839,0.16307941,0.6361571,1.0182279,-0.5589355,1.0179638,0.87796247,1.0448024,1.1625266,-0.4118491,1.1525258,0.4403294,0.9047363,-1.601143,-1.3986803,1.0944506,-0.8945433,-1.010329,-1.640883,-0.90548563,1.1101907,0.85419184,-1.7509292,-1.0550866,-0.80650723,1.4624059,-0.8012297,-1.304415,1.1228591,-1.5670071,0.9246444,1.5877963,-0.92747754,1.5009707,1.3870981,-0.14105122,-1.0015764,-0.9774307,1.0488712
http://dbpedia.org/resource/Mike_Bloom_(musician),0.5050122,0.6065665,-0.6862614,0.9715923,0.4870689,0.9733576,0.5725224,-0.81600314,0.4877677,-0.0262138,-0.6210751,-0.7483276,0.32455152,0.2967253,-0.017208042,-0.25019974,-0.28570995,-0.5429313,0.50635284,-0.53091794,0.3945687,-0.35678166,-0.7164377,-0.14015515,0.08692384,-0.2636955,1.4159983,0.071045585,-0.4868862,0.21068983,-0.75529927,0.9897245,-0.19594681,0.5090675,-0.5273109,0.2294631,-0.2474695,0.3430193,-0.27267945,-1.6406356,0.78512496,0.10706896,-0.14493756,-0.30496246,0.1987125,-0.09014593,0.01994251,0.22353527,-0.4380004,0.8543511
http://commons.wikimedia.org/wiki/Special:FilePath/Ribeauville_aisne_center_village.jpg,0.52721375,0.12613624,0.6024609,-0.72011673,0.6699868,0.08576865,0.24478503,0.6374766,0.59816664,0.13673763,0.27807462,-0.2127669,-1.2509993,0.040826082,0.16772254,-0.5226923,-0.49168614,-0.26973048,0.12951393,0.32704905,-0.80716056,-1.4868928,-0.8296228,-0.49539435,-0.28498426,-0.26113132,0.13318671,0.38215843,0.9383687,0.13526194,-0.89304036,-0.43606308,-0.442419,0.8503009,0.753166,-0.24046683,-0.16172889,0.91570574,0.05748047,0.4127643,0.7994474,1.2116615,-0.3978248,0.97682035,0.24894238,0.21743625,-0.31282508,-0.09047093,-0.27477562,-0.83093435
http://dbpedia.org/ontology/PopulatedPlace,-0.10959883,2.0187118,1.5817147,1.4584343,1.3489515,-0.114250615,0.09705728,-2.0960174,0.14661068,-1.0415906,-1.7556678,-0.6207184,0.30836606,-0.8075657,-1.9239123,-0.6478639,-2.1201859,-1.6161426,-2.2944186,-0.64227206,1.5474284,-0.13975492,-0.57319784,-0.8797499,1.7481018,0.015185348,-1.0175657,0.12725988,-0.31801113,0.5765117,0.076798506,-0.17241338,-1.0216401,1.3174752,-0.61399823,1.6465034,-1.0460325,0.7488,-0.5169887,1.2888571,0.3658275,-1.2884222,-1.0125062,-1.3195657,0.5341741,-1.1255529,0.84411055,1.3178346,0.33408654,0.8069423
http://dbpedia.org/resource/Francis_Gillette_House,1.1126149,0.53026855,-0.78963226,0.86992115,0.65329933,-0.944659,0.10443005,0.116451465,-0.17434353,0.18460137,-0.6887136,-0.32198068,0.03851045,-0.440437,0.439484,1.3325223,0.008135315,-0.54971206,0.1511911,-0.19747896,-0.28519955,0.45621157,0.99596876,0.8964733,-0.26797253,-0.45251134,-0.48874715,-0.9760273,-0.4883357,-1.9881643e-05,-0.27414635,0.29178056,0.67467684,-0.7317821,-0.32871735,-0.7885011,0.9998874,-0.3179864,0.013727708,0.727255,-1.0127245,-0.78333086,1.4949791,0.4129586,0.9046511,0.11784341,0.62370354,-0.9730931,-0.25812706,0.1372202
http://dbpedia.org/resource/Sarkaar_With_Jiiva,0.02466843,0.7910025,0.1853527,0.6544723,-0.26745626,0.16641127,0.23540813,0.77945596,0.7035745,-0.3133961,0.60877794,-0.5988857,-0.2131995,0.47527477,-0.4304766,0.29626673,0.15875421,0.24074069,0.1761339,0.22453788,-0.39703074,0.32024014,-0.35240057,-0.05743282,-0.84776366,-0.48317194,-0.38730645,0.24224862,-0.6697666,0.48284283,0.67380536,-0.5020901,-0.52387065,-0.33620706,0.30577064,0.22141615,0.5817034,-0.65754616,-0.6168023,0.24744184,-0.37454602,0.20898277,0.20542222,0.21215904,-0.20372218,0.060053825,-0.7945433,-0.2211452,-0.21571265,0.5910389
http://dbpedia.org/resource/Lodkeo_Inthakoumman,1.0905712,0.3210318,-0.1624628,-0.6481276,1.4491844,-0.29519135,-0.19535503,0.12672387,0.9431606,0.18477513,-1.4309443,-0.7021836,0.30081445,0.73681563,0.2537923,-0.6660683,-0.18678668,0.78857154,0.8276454,0.25336355,0.07021274,-0.59072876,0.018962182,1.3512553,1.0739847,-0.92887586,-0.83938044,-0.68954474,0.050852668,0.5921781,-0.5829289,-0.037192702,-1.1659923,0.6460945,0.6340829,0.26907316,-0.66363496,-0.98359126,0.48783475,-0.8903931,0.2001721,0.39038706,0.9510089,-0.19763382,-0.16732565,0.46800822,0.9770836,0.2586559,-0.60292375,-0.8378518
http://dbpedia.org/resource/It's_a_SpongeBob_Christmas!,-0.20355338,-0.36977074,-0.5221543,0.19539641,-1.0221602,0.3731808,-0.08320257,1.0515804,0.35604084,1.4036739,-0.27126646,-0.7689115,-0.02734975,1.1491214,0.37661803,0.10082211,1.3841563,1.1367776,0.5054668,-0.35733286,0.049597766,-0.76639557,0.35115883,0.7414303,-0.89337647,0.77029026,-0.11604646,-0.8426368,-0.5744931,-0.28695124,-0.64731514,-0.87784785,0.6616505,-1.2058309,0.74685305,0.28359386,0.28778356,-0.10863435,0.9538122,-0.08017565,-1.141997,0.095745,1.389908,1.126004,0.9299232,-0.3826285,-0.9040928,-1.2401593,0.0074595134,-0.7404464
http://dbpedia.org/resource/Karl_von_Moll,0.2538266,0.5797829,-0.58401626,-1.2318394,0.29665405,0.23011413,0.21846162,0.6877816,-1.0605204,-0.011005235,-1.2833562,1.2855072,1.2125292,-0.61881256,-1.2227703,-0.50636584,-0.52512,-0.8920689,0.21764983,-0.30237064,-0.24015982,-0.11003038,-0.6927399,-0.22754252,-0.0076495926,-0.40492156,-1.4961884,-0.18891005,0.36511275,-0.16547953,1.1949693,-0.89363974,0.12560402,-0.20100111,-0.7698287,-0.41674984,0.28971872,-0.3530812,-0.25720054,0.8863045,-0.49658984,0.20214081,-1.2634474,-1.1393335,0.2916237,0.17352761,0.78026843,-0.19241151,0.23506398,1.3931245
http://dbpedia.org/resource/2000_UBS_Open_Gstaad,-0.6824633,-0.2273032,-0.040669005,-0.7381878,0.575109,0.41937077,0.10145591,1.193272,-0.7257631,-0.5052936,-0.5481868,0.63389826,0.23232514,-0.23438203,-0.21117547,-1.0548162,0.08971458,0.37739563,0.12944697,-0.109575525,0.052676108,0.8696313,-0.5710388,-0.61755514,-0.58987606,-1.2681327,-0.5180137,-0.13604085,1.007702,-0.6326806,1.2786604,-1.1792369,-0.078399174,-1.1170719,0.48424482,-0.19540992,0.7271271,-0.10043864,-1.0710671,0.74100506,-0.6507313,0.34759033,-0.9469488,-0.77237564,-0.48687103,0.15116769,0.11098833,-0.7990792,-0.08306955,0.19244151
http://dbpedia.org/resource/1995–96_VfL_Bochum_season__Dirk_Eitzert__1,0.10303802,-0.40488166,-0.28539747,-0.43267953,0.35343456,-1.0286508,0.08829069,0.5409313,-0.34420815,0.34415576,0.10726407,0.4425937,-0.4529755,-0.0033124506,-0.4383604,0.360555,0.6724082,0.45875803,0.05813055,0.23121887,-0.33246747,-0.34758434,0.29212067,0.9280552,-0.32400912,-0.3887668,1.0292835,-0.5104104,0.32234994,-0.46387565,-0.3332295,-0.8519533,0.42450783,-0.41866457,-0.42265615,-0.1801654,-0.12998001,0.9821374,0.24698207,-0.29170853,0.34841934,-0.40614435,1.0614905,0.057729047,0.07753231,-0.74597937,0.31498668,0.2992126,-0.25274318,-0.35302493
http://dbpedia.org/resource/Duet_(2006_film),0.37033376,0.19283387,-0.32407725,-1.0601044,0.3140917,0.2016805,-0.23887289,0.74246424,-0.14947993,0.31642264,-1.3270859,0.73176444,1.1315204,-0.1914196,-0.867343,-0.7736435,-0.02344592,-0.33182645,0.397765,-0.30159536,-0.28030765,0.7409594,-0.4060359,0.8381698,-0.8753999,-0.8181177,-0.8711189,0.15337533,0.3557083,0.13290137,0.6937492,-0.31090048,-0.82688105,-0.5594493,-1.0096347,-0.43761042,1.0759066,-0.40300682,-0.8422531,0.07307431,-0.6312706,-0.34753338,-0.7655299,-0.33560857,0.4259608,1.1339422,0.70094335,-1.0619936,0.3606439,0.31599715
http://dbpedia.org/resource/Ards_(territory),0.3910306,-1.0366538,-0.2631438,0.25800052,-0.8790179,0.34917,0.29866466,0.82485557,0.36268398,-0.39303273,-0.22798657,-0.98670626,-0.096487656,0.87037075,0.04203596,-0.18462354,-1.0039902,-0.47985935,0.23821968,0.64907146,-0.23548098,0.9590127,0.23362145,-0.34206137,1.4932867,0.7678697,1.3165271,-0.31373188,-0.9938338,0.94155806,0.15165305,1.0629178,-1.0225139,0.9702016,-0.92420214,-0.64709824,0.2773074,0.691863,0.61435425,0.39642477,-0.034891378,-0.3697098,0.31632575,0.44229805,0.23607096,-0.2310949,-0.77603894,-1.4250264,-0.11192699,0.4227307
http://dbpedia.org/resource/Ashutosh_Singh_(cricketer),0.7011897,1.1955562,-0.812886,1.1551774,0.5797216,-0.1945854,0.4648445,-0.25349206,-0.062009294,-0.14226942,0.24954653,-1.1396033,-0.6405704,0.7181771,0.040169854,0.053862717,0.11731206,-0.9960551,0.27572605,-0.559343,-0.3310962,-0.4429072,-0.6235571,0.43982822,0.13671479,-0.51536566,0.7026471,-0.50612974,-0.09059046,-0.1283775,-0.6617984,0.5250616,-0.53364545,1.2162062,-2.0467105,-0.5443579,-0.17664133,1.0387408,0.13816258,-0.37521252,-0.080102205,-0.059726115,0.7268101,-0.88725096,0.73290634,0.4298778,0.33539814,-0.3477822,-0.14296462,1.3766054
http://en.wikipedia.org/wiki/Alatyrskii,-0.023161184,-0.021663152,0.10990452,-0.16493909,0.36088288,0.23911202,0.080375776,-0.6211621,-0.040082928,0.21787088,1.1894337,-1.040399,0.16237922,0.7418506,1.3248881,0.88769525,0.5652694,-0.14532603,-0.25378826,-0.62855875,0.39991358,0.69459915,1.033991,-0.5808993,-0.17088616,-0.83082557,-0.43315333,0.7281337,0.1047326,-0.043644905,-0.039481614,0.108362064,0.22953413,0.1261048,-0.68717754,0.41278136,0.22169326,0.041667614,0.17090604,0.16064572,-1.0710468,-0.41203347,0.20906082,-0.17469911,-0.5729769,-0.028737666,0.78817916,0.25180155,0.22486417,-0.22692692
http://dbpedia.org/resource/Ben_Hewett,0.042775523,-0.38723364,-0.59759057,-0.08556551,-0.05928183,1.7942494,0.08884292,-0.15138349,-0.03728328,0.6787462,0.7625287,-0.7303639,1.3277252,1.2374845,-0.8219991,0.12280426,0.05376435,0.8939309,-0.020991994,0.9713973,-0.100670114,-1.6986299,-0.6824039,0.063916825,0.13044085,0.87857527,1.1513091,0.04821948,0.9354729,-0.06627876,-0.8002905,-0.62313783,-0.3148406,-0.7618881,-0.9254282,-0.10482931,0.75097203,-1.3256625,-0.44277883,-0.4902657,-0.076176494,0.94202363,1.1463058,-0.87531084,0.054260347,0.036373485,-0.8895016,0.0049141827,-0.003825242,0.5487471
http://dbpedia.org/resource/Jenna_Marbles,-0.34196013,-1.0814282,0.1299662,0.78654045,-0.5714031,-0.7993863,-0.1902257,0.8955677,0.27130422,-0.45630047,-0.31614172,0.89285403,0.09569208,0.2941189,0.32952026,0.032745928,-0.6914166,-0.32477075,-0.13477692,-0.46504667,0.15347946,-0.48506266,0.29887947,0.3623559,0.3351727,0.3168078,0.09873998,-0.036227725,0.42334214,-0.8605529,0.71123916,-0.74505466,-0.03419363,-0.6209785,0.591163,0.13682528,0.54780775,0.33097482,-0.42659596,-0.5918261,-1.0690377,-0.6192589,0.9323267,0.14346963,-0.15074755,-0.11294425,0.530102,-0.5305589,0.19795385,-0.5508824
http://dbpedia.org/resource/2014–15_FC_Kuban_Krasnodar_season__Oleg_Tolmasov__1,0.031593956,-0.25013363,-0.86343217,-0.7341716,-0.8965891,-0.7283152,0.38584444,-0.2692851,0.0029356913,0.25929883,-0.030082298,-0.6518264,0.25847387,0.31873575,0.08710246,0.74729365,1.3748301,-0.20223667,-0.24118131,-0.30739275,0.2319125,-0.6954062,0.08480363,0.64181036,0.6487566,0.59002566,0.36969602,-0.042588837,-0.7647064,-0.06731867,-0.056970302,-1.326418,1.0841055,0.7705704,1.0479201,-0.37197116,0.6147343,-0.45532382,-0.027600177,-0.3654047,-0.2106195,0.91022,0.21418822,0.5115306,1.0138391,-0.14794602,0.027154353,-0.926505,0.2085391,-0.087991074
http://dbpedia.org/resource/Jenna_Lester,0.35034686,0.8433166,-0.65689045,1.4105797,0.87762076,0.4600084,0.51590407,-0.62131375,0.37240198,-0.3913639,-0.44483048,-0.90498,-0.4941136,1.6343892,-0.053452373,0.48969203,-0.6408741,-1.0877495,0.069203295,-0.9176649,0.02758655,-1.2163599,-0.6907643,-0.34816507,0.47384986,-0.23983599,1.3035272,-0.20212449,-0.1667353,0.49262366,-1.1501523,0.3391087,0.09961936,0.32384238,-1.4981024,0.28463265,-0.47903594,0.07191622,-0.39488968,-0.7362794,0.63029945,-0.63008374,0.6055495,-0.596982,0.36017534,-0.331304,0.039934587,0.24919437,-0.3945467,0.71899515
http://en.wikipedia.org/wiki/Stenoptilia_iriana,-0.115591615,-0.07679841,-0.005170015,0.289066,0.45216474,-0.30248725,-0.45830536,-0.41175777,-0.026003957,0.49179137,1.6505705,-1.3244723,0.66612214,-0.3618074,0.95078075,-0.32511327,1.0056741,0.15400615,-0.13207892,0.22412507,0.6070631,1.1756046,1.0858289,-0.3522571,-0.3924631,-1.163934,-0.58225536,0.44551912,-0.3064113,-0.042732228,0.43493864,-0.20157588,0.5683778,-0.939308,0.23863225,0.48165956,0.30193183,-0.080770746,-0.014767395,0.1509938,-0.5124354,-0.7669449,-0.44111946,-0.39579752,-0.47468856,-0.25465164,-0.10968774,0.6333039,0.14565133,-0.41004542
http://commons.wikimedia.org/wiki/Special:FilePath/Mitsubishi_Debonair_S20_rear.jpg?width=300,-0.34645128,0.21707124,0.4002613,0.16832833,-0.33765262,-0.31647858,-0.401386,-0.079856046,-0.55711037,-0.3679028,0.044535715,0.2738052,-0.7155384,-0.2761847,-0.211451,-0.21722217,0.6598481,-0.24074344,-0.2163544,0.31007022,0.20261145,0.29166922,-0.38382185,-0.36356443,-0.06278063,-0.40235254,-0.40008137,0.35229048,0.32239124,-0.3901125,-0.6416207,-0.96743095,0.12899499,-0.21457961,-0.14296277,-0.41978493,-0.226582,0.83219033,-0.26556838,0.16631599,0.3431246,0.88392174,0.30291292,0.70723295,-0.3019021,-0.36126032,0.09595262,0.025020711,-0.25675127,-0.22607282
http://dbpedia.org/class/yago/WikicatOlympicCanoeistsOfTheUnitedStates,-0.5255563,0.6783336,0.5679241,0.25730455,-0.28019366,-0.6392374,-0.5079734,-0.03271015,-0.19428551,-1.428384,0.4384565,-1.3623741,-0.9675224,-1.4252225,-0.05648602,0.030588778,-1.4984744,0.72942233,-0.4237825,-1.4652803,0.2604114,0.62736964,-1.4774688,-0.631655,1.397384,-1.3361522,-1.5529166,0.11177297,-1.4831511,0.7787784,1.4615705,1.4549781,-0.69691885,0.30381975,-1.1576543,0.29758486,-0.7793082,-1.4139073,-0.5679232,-0.08690435,0.6250467,-0.8366644,-0.6227066,1.1019024,-0.24410114,-0.7111634,0.22933026,0.75343364,-0.35570973,0.4490929
http://dbpedia.org/class/yago/Code106355894,0.39225188,0.014257946,0.17433281,0.2011221,-0.33113855,-1.3585584,-1.0015045,1.2069573,-1.2818869,0.5035371,0.45574033,0.596896,-0.7044301,0.3659206,0.67037445,0.6419144,-1.1687344,1.3706598,-0.43897262,0.38886252,1.0298402,0.74929893,0.425122,0.12623322,0.19012769,0.74738806,0.23580584,-0.37310866,0.85323846,1.18,-0.3222406,-0.43512538,-0.52556753,1.507878,0.6846613,0.45413288,-0.6135787,-1.1803977,-0.22759578,0.49841383,-0.29402855,0.99768865,0.06301599,0.35632026,-0.57771045,-0.29045695,-0.18693879,-0.43315035,1.1400738,0.049914796
http://dbpedia.org/resource/Harold_Faragher,0.65055543,-0.562473,0.087628454,0.68249774,0.43941215,-0.6197429,-0.2887927,0.03990597,-0.56056833,0.65471745,0.5507505,-0.22820677,0.5004772,-1.107964,0.6484378,0.6816717,-0.5613561,-0.5363128,-0.26680243,-0.35778874,0.24963678,-0.021374589,-0.029305547,0.5888379,-0.029661436,-0.68047976,-0.18189155,0.15747327,-0.6779522,0.13994682,-0.6091086,0.5957345,-0.0469728,0.17181236,-0.49158314,-0.5814228,-0.8903202,0.7370818,0.04577467,-1.2536112,0.3081738,-0.55595714,-0.15321875,0.60936505,-0.03879595,0.5267274,-1.0877084,-0.6519233,0.04910523,-0.59497166
http://dbpedia.org/resource/Zacompsia_fulva,-0.05373893,0.8661699,0.10454627,1.228513,-0.42698413,-1.0604371,-0.14523198,-0.804746,-0.24147683,-0.19309282,0.0738666,-0.8941605,0.26732397,-0.11473682,0.3143877,1.1473279,0.6098219,-0.00056930503,-0.14302123,1.1312299,0.17754944,0.20318681,0.41044155,-0.02301923,-0.47184494,-0.47464177,0.39005846,0.115894966,-0.32501933,0.84974223,-0.95570135,0.081523694,-0.84525776,0.6432663,-0.34860778,0.05223154,0.0329602,-0.60223866,-0.086859666,0.14546181,0.10577236,-0.66398036,-0.16460603,-0.30815905,0.009633279,-0.121423915,0.42171383,0.17769152,0.14084093,0.29596338
http://www.ontologydesignpatterns.org/ont/dul/DUL.owl#TimeInterval,-1.0233274,-0.7835873,1.7995578,-0.30401272,0.64627725,-2.2746158,-1.2781234,-1.8926971,-0.17677829,0.08076991,-0.8112751,1.1166135,0.7216073,-2.0142515,-0.49357742,-1.489218,-0.9217799,-0.2155018,-2.0128927,-1.101485,2.1030304,-0.5362338,0.69132566,-1.7758372,1.5332967,0.002164028,0.017886387,1.0275985,-0.17390919,-1.3208286,-0.1308368,-0.3962452,0.54135996,2.0180955,-0.6143347,1.4218351,-0.9421369,-1.2819041,-0.7442805,-0.37011752,1.4056497,0.86273366,-1.5025136,-0.92755646,-2.3387268,-0.6671287,-0.36016682,-0.70666283,1.4767585,-0.29339343
http://dbpedia.org/class/yago/TravelAgency108355692,0.2018303,1.4818548,1.4479591,0.60840887,1.3535644,1.2576067,0.02668061,1.5413417,-1.7745229,-0.8071508,0.9024625,-0.57805157,-1.2695861,0.49197072,1.0742037,0.026367703,0.3672668,1.4599957,-0.3802632,0.4316802,0.2342576,-0.1240153,-0.6621823,0.5497653,0.2793261,0.1254248,0.49877128,-0.27603728,-0.92629343,-1.2604522,-1.4722798,0.008730661,-0.94069207,1.7561536,0.054473806,5.1048177e-05,-1.3480917,0.4877007,0.6847678,-1.002716,1.3819712,-0.82719195,1.106308,-0.29808453,0.64756715,-0.87625307,0.0025451295,0.24068743,-0.49187598,-1.961209
http://dbpedia.org/resource/Natalia_Brasova,0.20546141,-0.41110665,-0.6277433,0.120248176,0.049582604,-1.1208167,0.14258718,0.7512582,-0.5053806,0.7898248,-0.03921599,0.6659614,0.22366709,0.057624806,-0.6765635,0.47185498,0.19776562,0.36378482,0.36801153,0.24006227,0.058347456,-0.30835783,0.28042725,0.55347884,0.55052936,0.19744207,0.72322756,-0.4893847,0.3134328,-0.03573101,0.35161307,-0.24948488,-0.7705816,-0.16119848,0.00833041,-0.5198856,0.5620573,1.0695829,-0.75619173,-0.2732209,0.5762602,0.39148635,0.8988216,-0.12771156,0.11220493,-0.5042814,0.5776707,0.41935185,-0.39976677,0.28294012
http://www.wikidata.org/entity/Q1390,-0.0824047,-0.82383883,0.31033888,1.7164959,0.64942443,-0.7123217,-0.14683603,-0.69059855,1.3835828,-0.06027025,-1.2434461,1.4114283,1.2633045,-0.09830685,-0.6103463,-1.4588985,-0.69047964,-1.6558061,-0.7965607,-1.120751,-0.6025082,-0.75161666,0.3455814,-0.1543715,-1.0618404,0.08748437,1.1767124,0.8477358,0.2813282,-0.094878085,-0.08482648,1.0783173,-0.15894893,0.17228733,-0.7804677,-0.6449307,-0.10150088,1.6961409,0.24415545,1.4614533,0.9196349,0.078875735,0.15597223,-1.1221199,-0.8044668,-0.37462386,-0.8363783,0.042331684,0.301104,1.5152329
"http://dbpedia.org/resource/Muir_Springs,_California",0.44337574,-0.69498515,-0.05449061,-0.82098746,0.044379935,-1.7137552,0.17935318,1.1376698,1.0183463,0.8380451,-0.7045969,-0.37264085,-0.51544505,-0.82023656,0.07445174,1.0345975,0.042195857,0.7522698,0.12095808,-0.9858502,-0.3057872,0.07370829,-0.9414606,0.33029532,-0.40312082,-0.6771049,1.2658343,0.07669837,-0.84150356,0.05805302,-0.71707,1.0805706,0.085427776,0.7928301,0.43433693,-0.90677285,0.10861341,-0.11676981,0.88090134,0.30257377,-0.21582957,-0.45300502,0.81058747,1.2561244,0.38097355,-0.53400475,-0.5336023,0.2829408,-0.6032011,0.007960473
http://dbpedia.org/resource/Category:October_2009_events_in_Russia,-0.32489365,0.26793364,-0.53832495,-0.86127317,0.1427486,0.78058106,0.27503306,0.35283217,0.6570369,-1.2693399,-0.8538654,0.6354508,-0.41086468,-1.4149374,-0.82530326,0.23748057,-0.14575474,0.12136109,-0.3626884,-0.794119,0.36071464,0.5811611,-1.289609,1.585162,0.8729916,0.9732672,-0.7396225,-0.4232534,0.70203763,0.4110986,0.9923894,-0.9368909,0.78136957,0.16758277,-0.8234699,0.6031033,-0.40470374,-1.1768136,-0.41591552,-1.1866711,0.1794806,0.12742856,-0.08637659,-0.47037888,0.32748634,-0.31954473,-0.3483649,-0.87263966,0.2571114,0.20484279
"http://dbpedia.org/class/yago/WikicatCitiesInMontgomeryCounty,NewYork",-0.86645055,-1.2286268,-0.083026856,-0.68965065,-0.75544167,-0.7947268,-0.057299882,-0.015624702,-0.64218783,0.25640512,-0.9389906,-0.6589097,0.36345205,0.67732507,-0.265429,1.5145265,-1.4193062,-0.100012675,-0.32112786,0.026545728,0.27695557,-0.78288716,-0.13120088,0.8315467,0.69800454,1.8321145,0.5978866,0.7420589,0.70549977,0.97933644,0.23278634,-0.30558217,0.29055384,0.9148707,0.18680951,0.100843444,-0.10872852,-0.4659091,-0.3178013,0.14414825,0.5570615,0.9244591,0.9163959,0.18358193,0.51909083,-0.95227545,-0.5288862,-0.9950515,0.31103835,-0.4428852
http://dbpedia.org/class/yago/Body107965085,0.16042888,-0.032934163,0.45536247,-0.5693364,0.63327444,0.054919336,-0.46248707,0.08791187,0.47101346,0.017881755,-0.6082916,-0.01712551,-0.7678901,-0.072064266,0.049370255,0.31316483,-0.07707656,-0.8947713,-0.40065315,0.44249666,0.26390913,0.003686678,-0.04197289,-0.14832251,0.06378992,-0.25580484,-0.76560825,0.47956946,-0.093626305,-0.056767058,0.08010758,-0.19155726,0.5051646,0.1625068,-0.1364024,0.5069296,-0.605563,0.33967084,-0.06830185,-0.040035192,0.13801908,-0.18341555,-0.8665091,-0.85513794,-0.6797844,-0.0028647038,0.16335197,0.6536485,0.5447685,0.2427166
http://dbpedia.org/resource/Loughguile,0.3775796,-0.5477978,-0.41470405,0.46530214,-0.06447031,-0.77538997,0.32873827,1.3346002,-1.3520519,0.09310864,-0.96064585,-1.0051659,0.44560987,-0.10366405,0.8536105,0.84721935,0.13383873,-1.1286073,0.34704834,-0.16564982,-0.38123417,-0.95126003,0.036335234,0.061725743,-0.77921796,0.99421,0.69865805,-0.17949654,0.9013239,-0.010120982,-1.1508546,-0.23125705,0.0676292,0.22847523,0.89538497,-1.0558878,0.18203542,1.207773,0.49901,-0.48324186,-0.5168042,0.061973855,0.7061005,0.120424196,0.37455237,0.40195975,-0.06660426,-0.10751977,-0.3480953,-0.42268676
http://dbpedia.org/class/yago/Device103183080,-1.2697809,0.42821005,0.29528037,-0.0393346,-0.9415062,-0.23577257,-0.16257648,0.6458897,1.3568503,-0.94624263,-0.27545726,0.16819535,-0.043396674,-0.6794713,-0.17270063,0.08002524,-0.6389569,-0.0066401744,-0.07383096,-1.2688162,0.13197048,-0.14761502,-1.5713406,-1.3633398,1.0822105,-1.1387776,-0.3664671,1.4919087,-1.2562141,1.2661846,0.38517106,-0.88999176,0.25953376,-0.15769449,0.09854438,1.5814035,-1.6502628,-0.38760865,-0.030050512,-0.3765529,1.6504399,-1.5517467,-1.5580567,1.6866121,-0.32379156,0.61534244,0.7081961,1.0073644,0.1682108,1.048747
http://dbpedia.org/resource/British_Engineering_Excellence_Awards,0.41864392,-0.37942594,0.15121497,1.1707816,-0.9695701,0.6028743,0.5221424,0.16957706,0.6617679,0.6044841,-0.7076156,-0.9340548,0.5183557,0.5394516,0.07370368,1.1454761,-0.16714196,-1.1215795,-0.007959091,1.4370453,0.114525475,-0.76069665,0.6471523,0.5363432,-0.3366643,-1.2863246,-0.15610005,-0.5784461,-0.34231108,-0.114279,-0.64185756,-0.4060443,0.65612495,-0.4557385,0.4802302,-0.19136943,0.6028073,-0.3922593,0.6866869,-1.2028664,-0.5617185,1.0535761,0.9835539,-0.79061526,0.31472975,0.16606674,0.76346457,-0.42613006,-0.3114591,-1.2799928
http://dbpedia.org/class/yago/UrbanArea108675967,-0.857625,0.032094877,0.9114413,-0.08404693,-0.31705302,-0.18383527,-0.25217938,-0.4567133,0.45022374,-0.54367644,-0.4927786,-0.46906662,-0.85069853,-0.14204276,-0.59323466,0.9676191,-1.3383583,-0.3291145,-0.51447254,1.0922569,0.69550765,0.44068667,-0.7696639,-0.8006229,-0.85208356,1.1395833,-0.1540771,0.33165672,1.3136454,0.05654139,0.47172096,0.70615554,-0.47215372,0.34425583,0.3343651,0.047341943,-0.61296886,0.49177113,-0.86570203,0.16662031,0.43688756,0.8618091,-1.2657129,0.74509895,0.33335462,-1.2527841,-0.8187479,-0.67969555,0.18528536,0.4422497
http://en.wikipedia.org/wiki/Court-martialed,-0.8380797,1.2632086,-0.59367275,0.43626487,0.7212849,0.63830346,-0.3825317,-1.7689608,0.79815066,0.24295929,1.2783006,-0.46665475,0.77860564,1.3849297,1.3936434,0.23641083,1.4843814,0.20611803,-0.12025726,-0.56728476,0.5060665,-0.3126966,1.297478,-0.39252642,-0.07535858,-1.8557471,0.5064897,0.16828352,-0.76195407,0.13777304,0.09236597,-0.40931964,-0.30597615,-0.8283218,0.23398991,0.46885347,0.05503606,-0.4248136,0.32651126,0.8207419,-0.61195046,-1.3366524,0.422956,0.031996146,-0.103414185,0.18958256,1.0958976,0.12269622,-0.2009094,-0.5329227
http://en.wikipedia.org/wiki/2021_Lyon_Open_–_Singles,-0.32767645,-0.21606934,0.074131906,0.62149173,0.67482424,0.19061388,-0.14298122,-0.9514328,1.0262363,0.3839083,0.5461132,-0.8966622,1.3253934,1.2530113,0.8000313,-0.19509834,0.57273906,-0.16919832,-0.28358656,-0.6621502,0.36914483,0.807177,0.44997922,-0.25239,-0.7872073,-0.312616,-0.2614941,0.351778,-0.82692325,0.3549406,-0.5318114,0.09051092,0.14260656,-1.3235661,-0.5714537,0.5846297,1.0821514,0.37779096,0.25157642,-0.6995908,-1.019572,0.20521703,-0.03207355,-0.7217,-0.2537538,0.21722844,0.71022594,-0.3643412,-0.027037593,0.052043542
http://dbpedia.org/class/yago/Chemical114806838,-0.031562507,0.05600186,0.60020554,1.1823364,0.63991845,0.008870531,-0.74606085,0.3087945,0.27644163,-0.8766274,0.25897038,1.0883982,1.0093848,-0.8347887,-0.23726237,0.45940718,-0.63956183,-0.3413607,0.07867282,0.08033096,0.8994483,-0.69612086,-0.13973391,0.060970876,-0.8148788,-0.9109395,-1.0606327,0.81290066,-0.23936526,-0.49700168,-0.530888,-0.29976892,0.6965942,0.49976054,-0.05388371,0.8189972,-0.7773059,-0.72569495,0.260862,0.63424927,-0.3342311,-1.1291798,-0.26393968,-1.0087757,0.08490614,-0.8395197,0.9376646,0.8163439,0.75980765,1.0624853
http://dbpedia.org/class/yago/Aristocrat109807754,0.017171845,-0.7791114,0.4862902,0.853827,-0.7988497,-0.6382662,0.057744857,0.320255,-0.69525886,-0.9441951,-1.1814966,0.5611376,-0.103378266,-0.12749816,-0.62302136,-0.5410175,-1.0513679,0.9971925,-1.0283531,0.3362841,1.0372561,-0.5282916,-0.3412779,-0.016762884,0.6307207,-0.15476869,0.7843219,-0.016973447,-0.5689456,-0.8189833,0.26884153,0.55727625,-0.5340881,0.29933247,0.484904,0.2750696,-0.43095848,0.13407364,-0.56901836,-0.3107526,0.72294396,0.16923226,0.28246593,-1.1281688,0.17966564,0.0844342,-0.8989534,0.532236,0.023498764,-0.197429
http://dbpedia.org/resource/Bob_Manning_(soul_singer),0.6458929,-0.5062326,-0.2861549,-0.43563628,-0.11167026,1.1796981,0.5347183,0.48419818,-1.2183008,0.31065008,-0.16702555,-1.084855,-0.983979,-0.010115315,-0.23839532,0.5304612,-0.2674301,0.52370715,0.16499911,1.2684445,-0.12459349,-1.1238605,0.19936587,-0.5008144,-1.1761025,-0.061712284,0.2500911,0.18410012,0.7250429,-0.019565625,-0.05963542,0.11883386,1.1133552,-0.18997501,-0.30353367,-0.24917154,1.0788445,-0.64098406,-0.0038717922,-0.19955705,-0.74332,-0.8903378,-0.12762713,-0.54597235,0.10399944,-0.4057184,0.23637944,-0.6014457,-1.0113558,0.041717764
http://dbpedia.org/resource/Hylocurus,0.46054134,-0.72640216,-0.40237212,-0.6133139,1.1792854,-0.8603106,0.5611469,0.41920593,-0.06860988,1.1983943,0.35170865,0.13120666,0.6911147,-0.41116685,0.09368173,-0.106610104,0.022854436,0.294485,0.62301135,0.6875359,-0.8674646,0.12723549,1.1169561,0.30681357,-0.30338293,-0.6355455,-0.9663842,-0.27782863,0.309415,-0.03901921,0.9249367,-0.67190415,0.34130836,-1.1085504,0.20054285,-0.8098468,1.1714131,-0.95973366,-0.8078685,0.5478889,-0.9453184,-0.3627658,0.13592187,0.2664384,0.3848173,0.8634856,0.91862786,0.07247275,-0.6101046,-0.16221836
http://dbpedia.org/resource/Mellor_Tucana,-0.61875725,-0.057302948,0.030583756,0.9462098,-0.037602153,-0.3509988,-0.099488795,0.9720473,-0.9371416,-0.5012299,0.119575694,0.5944229,-0.20111582,0.5292637,-0.78445125,-0.08217408,-0.14508143,-0.9475686,0.32052955,0.2936725,-0.37302542,0.29583257,0.47406438,0.36344892,-0.9670002,0.094391435,-0.023876676,-0.43811432,0.6840999,-0.8538739,0.628351,-0.522968,-0.40525278,-0.74493814,-0.13396329,0.052287247,0.9667731,0.41381842,-0.9030944,0.2581498,-0.9554332,0.11550313,0.8822437,0.027364463,0.25866675,-0.6263052,-0.2674034,-0.033019885,0.036448885,-0.36742577
http://dbpedia.org/class/yago/WikicatMusicMuseumsInVirginia,0.12221192,0.7902284,-0.18080133,-0.06531784,0.63675565,0.51788247,0.3957123,-1.2131947,0.6287606,0.5647891,-0.5848235,0.17659692,-0.02656239,0.5778808,0.106480874,-0.66426206,0.95497733,-0.04914348,0.19696899,-0.7184556,-0.18271838,-0.53688085,-0.59565115,-1.0326632,1.1205577,-0.38810825,-0.4127679,-0.43172455,-1.1163361,1.2940624,1.1469978,-0.23429015,-0.54710793,-0.15805289,0.39943683,-0.48500425,-0.9847218,0.39207602,0.011503008,0.16445722,0.123880014,-0.9991333,-0.043023746,-0.9517687,0.01675343,-0.7025269,1.4128412,0.64771914,-0.098505996,1.3173314
http://en.wikipedia.org/wiki/Cine_Capri,-0.53895706,0.2290206,0.51266515,-0.3126963,0.11899658,1.0815923,-0.56521916,-0.25000525,1.1221145,-0.5280039,-0.62198853,-0.7301836,0.000775625,1.1314776,0.5010283,-0.15443707,0.88608724,0.6918033,-0.49203086,-0.680202,0.5424143,0.22931689,-0.55145293,-0.56454307,-0.11542203,-0.667577,-0.066357926,0.6174696,-0.7157523,0.18664467,0.14617985,0.6421909,0.10449849,-0.97209734,-0.92798746,0.67138916,0.21641153,-0.17077357,-0.11842572,0.86246836,-0.9116553,-1.0096631,-0.36032155,0.5122747,-0.55682254,-0.57027876,1.2329487,0.16598153,0.54596424,0.6606726
http://dbpedia.org/resource/Muraini,0.3763006,0.9305921,0.20172703,1.0274616,-0.0647199,-0.11231639,0.55667204,0.8399714,-0.2908166,0.37424695,-0.405815,0.2967808,-0.36387625,1.0190897,0.78579575,0.50459075,0.65615934,-0.3399946,-0.095894985,0.31834957,-0.4992575,-1.2165642,0.021421177,1.3741152,-0.74187917,0.252889,0.15657775,-1.6379505,-0.8564231,-1.2676316,-1.5439321,-1.0404637,0.60419464,-1.5347928,0.80287695,-0.20121609,1.4427923,0.37460625,0.16644025,0.13133073,-0.50597286,1.3591447,0.53959435,-1.3458102,-0.13385682,0.51438856,0.5509354,-1.3674778,0.13429981,1.2369578
http://dbpedia.org/resource/1992_Argyll_and_Bute_District_Council_election,-0.2713734,1.1917862,-0.7138377,-1.1057144,-0.56775683,-1.767784,0.2762753,-1.065731,0.41580966,0.13940704,0.9758546,-1.6263963,-0.15057771,1.4454796,-0.36890146,-0.6652585,-0.40438277,1.4306096,0.69121706,1.0779479,-0.76968396,0.7700819,0.7965619,0.33165798,1.1971375,0.050564438,1.4612253,0.26164833,-0.6744342,0.69175416,-0.024750277,-0.36208552,0.15943246,-0.1731666,1.556448,-0.44255912,-0.38227436,0.1687176,-0.48041856,-0.66724586,0.6272381,-0.16713685,-0.79315335,0.475604,-0.37033638,0.6744385,-1.7193701,-0.64182997,-0.4381665,-0.3690829
http://dbpedia.org/class/yago/Player110439851,-0.51451486,0.27975196,1.238423,0.11933681,-0.13864388,-0.54214716,-1.3264176,0.4622424,-0.64678127,-2.122743,-0.14937206,0.15789497,-0.22311643,-1.5198692,-1.2664155,-0.54942733,0.32239163,-0.5106056,-0.5506403,1.107129,0.5479536,0.6048319,0.52594775,-1.0747213,0.69713247,-0.17716856,0.61115104,0.24600439,0.20396054,-0.93389225,0.1943834,-0.29929197,-1.40513,1.7630019,0.13610093,1.9285089,-0.5090215,0.2807254,-0.11670995,-0.16336836,0.95519286,1.0839355,0.98678744,0.7770184,-0.29209337,-0.22302984,0.46071085,0.18816024,0.14285475,-0.8494739
http://www.wikidata.org/entity/Q482994,0.5259883,-0.21518368,0.7037518,-0.45326418,0.00952066,0.03285472,-0.27091774,0.06420972,-1.5050102,-1.519753,-1.2306782,0.11278505,-0.7418069,-0.6533209,0.5370077,-0.67019254,-0.65699536,-0.8677078,-0.73041695,0.083389096,-0.17819688,-0.44716895,-0.23830472,-0.124822445,0.2881556,0.46093228,1.2412573,0.32100323,-1.4225574,-0.31316733,0.9196341,-0.7494766,0.06455005,0.88436604,-0.7339372,0.52993435,0.46650487,0.8977254,-0.69625163,-0.49236986,0.43985942,1.2490051,0.68666124,0.18081684,0.39619502,0.041305654,-0.06082612,1.2301953,0.77953315,-0.23724301
http://dbpedia.org/resource/Megalotriton,0.07816729,-1.0414481,-0.1452648,-0.26225924,-1.3169796,-1.4177037,0.15311228,0.117399536,0.92583627,0.25993887,0.977314,-1.3190013,-1.0927746,1.1965907,1.1774403,-0.6436259,-0.8746811,0.7492054,-0.004268963,-0.42610446,-0.05539403,0.020550838,1.3139833,0.15823127,0.47234806,1.3303236,0.9697573,0.052617792,-0.2822806,0.24159992,-1.0354959,0.18908271,0.66566896,0.27830237,0.45824498,-0.8786198,0.20608935,0.6462203,1.4013203,-0.91535413,-0.36115912,-1.1172925,-0.2594115,1.3553598,0.13320924,0.35107055,0.49570474,0.046073645,-0.16319834,-1.3079578
http://dbpedia.org/resource/Naranjeros_de_Hermosillo,-0.7028379,-1.0590919,-0.57148564,0.8517133,-1.4234495,0.42957932,0.3841884,0.50024694,0.5894169,-0.60401464,0.46559286,-0.6029909,-1.0492251,0.53429395,0.9085591,0.1797126,0.13380699,0.6694145,-0.11131138,1.3833023,-0.037269928,-0.3225213,-0.3060304,0.5091521,0.5234992,0.93515337,1.2832485,-1.0169704,0.87131417,-0.028843226,-0.5808347,-0.1616997,-0.7510819,0.4400182,-0.2284667,0.11124535,0.5722896,-0.98028547,-0.8285799,-0.8834904,-0.2024521,0.3173082,-0.3795153,0.1284635,-0.31635147,0.5951755,-0.40492675,-0.37630752,-0.070529915,-0.838129
http://dbpedia.org/class/yago/WikicatJapaneseBaseballPlayers,-0.11745994,0.1961,0.18017244,1.3380644,0.70968276,1.0722332,-0.2370162,-0.37952334,1.5581979,-0.2319671,-0.34958184,1.5392553,0.72684777,-0.32339972,-1.3560126,-1.2964175,-1.2603549,1.178217,-0.16976504,-1.3649011,0.031913046,1.263312,-0.98061204,-0.77940995,1.2068533,-1.4821777,-0.2897856,0.1821192,-1.1117616,1.3799734,0.9304258,0.8793131,-0.92011017,0.79290545,-0.44721186,0.09714961,0.18615349,0.83850056,-1.2082173,1.0973572,0.72324747,-0.7816822,0.63870656,-0.21963234,0.099740826,-1.156269,0.8341456,1.262695,0.23148988,1.0868353
http://en.wikipedia.org/wiki/Eldar_Hansen,0.5153783,0.77828646,0.058695816,-0.33806652,0.8037987,0.698055,-0.21944754,-0.1745719,0.6495642,-0.06598102,0.6911348,-0.72173876,1.3322237,-0.09683144,1.0780263,0.28003305,0.22591686,0.12193282,-0.09075364,0.50104475,0.26648957,0.8539186,0.9464181,0.16769837,-0.9030258,-1.0339111,-0.021552434,1.0349542,-0.24165982,-0.30952957,0.7914859,0.7965503,0.2977221,-0.4658684,-0.14370371,0.19234185,0.29244116,-0.39264143,-0.52471703,0.11929911,-0.31768796,-0.56836754,0.5000285,-0.871997,0.38640028,-0.15046762,0.6971005,0.015649162,0.8516664,-0.23753928
http://dbpedia.org/resource/1972–73_West_Ham_United_F.C._season,0.47829983,0.54267853,-0.19285512,0.82170403,-0.69939923,0.41689134,0.29325628,1.2376466,-1.1190059,-0.16725652,1.1382989,-1.0692722,-0.55330926,0.8195758,0.1461271,0.5835637,0.92256176,0.77297395,-0.35635272,0.17763667,-0.37189162,-0.64369804,-0.23057278,0.23397595,0.4078573,1.0352008,1.238632,-0.4059008,1.189625,-1.0744995,-0.35492718,1.037938,-0.62438667,-0.21588206,0.3433213,-0.3147734,-0.3451551,-0.9439926,-0.5911658,-0.5803227,-0.84685355,0.9717843,-0.33085296,0.324102,0.8443384,0.38848394,-0.5433139,0.62226564,-0.3233249,-1.1560355
http://dbpedia.org/resource/Denis_Spotswood,0.42900038,-1.3962579,-0.50859547,1.1542712,-0.9499233,0.1562646,1.189221,1.5535145,-1.0238562,1.6658077,0.40753353,0.6741339,0.77430695,1.9672589,1.0657173,1.0433191,0.024318935,1.08674,0.47761577,0.0071811033,-1.0979289,-1.3080063,0.8040064,-0.41254038,0.49136776,1.5072792,1.6701477,0.366467,1.1750647,0.5562063,0.3534283,-0.31870234,1.1515194,-0.36680555,1.9976168,-0.5538681,1.7140199,-0.26950774,0.18740638,-0.39213154,-1.9394069,0.39587587,0.6887958,-0.4353558,0.35641497,1.0167509,0.89606345,-0.43206102,-0.48956442,0.65346736
http://dbpedia.org/resource/2022–23_Indian_Super_League,-0.10520274,-0.18385623,-0.6296444,0.8635693,0.92196596,0.19388853,0.76911587,0.15509278,-0.21309017,0.65445787,-0.6748273,-1.16278,-0.1895279,1.0629627,1.5784444,0.32319963,0.3408699,0.30566883,0.75873333,-0.6847444,-0.81941473,-0.5570937,-0.12458756,0.46012774,0.007937434,1.2799221,1.6946417,-0.71327585,0.7081172,-0.2524288,-1.6958896,-0.35202217,-0.0016813867,-1.6304427,0.1333079,-1.4996679,0.5730497,-0.7150465,1.658506,-0.98542804,-1.0523747,-0.16575743,0.28455693,-0.87266725,0.7184885,-0.046324406,0.5356901,-0.64351314,-0.65623814,0.012685204
http://dbpedia.org/resource/Kuku_Fidelis__CareerStation__4,-0.1962695,0.69640106,0.30512974,-0.79853755,0.4351307,-0.21267223,0.53538865,0.25337985,-0.76266533,0.13016243,-0.56055176,-0.37316167,0.19258697,0.31116623,-0.73889136,-0.47821742,-0.24457133,0.48574957,0.4473338,0.6317427,-0.42824027,-0.022266757,0.11510164,-0.06915187,-0.8450447,-0.44685057,0.51804507,-0.43471476,0.75692326,-0.17744192,0.2339138,0.18463361,0.42237914,-0.42285746,0.31448957,0.094768465,-0.32871518,0.18179023,-0.6587173,1.3282046,-0.5457851,-1.0400511,1.1046126,0.103250384,-0.2480561,-0.18792081,-1.6656947,-0.59770346,-0.4937272,-0.124134384
http://en.wikipedia.org/wiki/Flake_graphite,-0.63136864,0.3901245,0.5159087,0.43843746,0.17271137,-0.31839424,-0.64730453,-0.8763955,-0.04040395,0.39217362,0.62290376,-0.7950483,0.6244645,0.5518243,0.7242133,0.25893667,0.49975312,0.19357899,0.30569175,-0.16565105,0.20132437,0.66128707,0.53011304,0.03670867,-0.063325524,-0.6384838,-0.12655367,0.6973529,-0.52067024,-0.3642642,-0.4048606,0.75565994,-0.6416389,-0.19410564,-0.46495944,0.41331995,-0.40028718,0.33304197,0.44934484,-0.3542015,-0.54611045,-0.6766849,0.5371006,0.019643173,-0.42455733,0.4388408,0.54765004,0.35317662,0.46057236,-0.7120395
http://dbpedia.org/class/yago/Cameraman109889539,-1.0770627,-1.3883173,0.96287876,0.9245364,-0.20942551,-1.7285722,-0.25471732,-1.3159657,-0.89748865,-0.6460096,1.6408534,0.7516068,-0.69805765,-0.9206898,0.36962646,0.97882557,-0.7768785,-1.8764918,-1.8817675,0.4939682,0.7646101,0.14567259,1.4253696,-0.42594078,0.4623795,-0.14230953,0.5746946,1.4166831,-0.29750258,0.8123333,-0.9965745,1.1622525,-0.034570478,0.96390533,0.26177165,0.5029287,-0.795212,1.1846851,-0.56937,-0.78714967,0.15929662,0.31984225,0.27383068,0.0956959,-1.1200852,-0.76631874,0.07444038,0.7265091,1.6595001,-0.5647604
http://dbpedia.org/resource/Ron_Schueler,-0.72646314,0.85599613,-0.52428705,0.07406524,-1.1076775,-0.28937447,-0.13643001,0.43359497,-0.24868008,-0.25373793,-0.47632602,-0.94237584,0.10418809,0.3327652,0.104870394,0.21771517,0.5507349,0.6094672,0.09310783,-1.5004216,-0.4275739,-0.3006323,-0.19100468,-0.90870655,-1.1363004,-0.40666753,0.8477193,0.8063932,-0.035775837,-0.6676193,-0.38107345,-0.50650644,-1.1719825,0.0722367,-1.3285984,-0.017769534,-0.9117446,1.079209,-0.50610983,-1.3868715,0.30593216,-0.20894559,-0.09710046,0.8649351,-0.0659308,0.28031966,-0.37995037,0.33325416,-0.72715914,-1.5703605
http://commons.wikimedia.org/wiki/Special:FilePath/Screenshot_All_of_the_Lights.png?width=300,0.29658297,-0.34592736,0.123859055,-0.7015304,0.39174265,0.76816124,0.34218952,0.9077028,0.225734,0.11295529,-0.07812031,0.394872,-0.43753016,0.5081133,0.76904875,0.23169559,0.65720385,0.051723436,0.04074583,0.41416296,-0.7208929,-0.91706383,-0.9362695,-0.30844855,-1.056326,0.22528936,0.70025903,-0.06476036,0.8993197,-0.032533623,-1.0332968,-1.3270898,0.055820778,0.22437848,1.1159658,-0.61918306,0.072971255,1.2013996,0.44426692,0.88785005,-0.20079443,1.816709,-0.3793274,0.5328481,-0.037456855,0.3127411,0.053385373,-0.19544166,-0.8084832,-0.07190696
http://dbpedia.org/resource/Assamalla,0.3163437,0.23298141,-0.838649,0.32398412,-0.5060703,-1.0425429,-0.20971352,0.43547982,0.16739863,0.16477475,1.1252497,-1.1639793,-0.41895962,0.30154172,1.0079238,-0.15951782,0.33630848,-0.27943748,0.81966764,0.60892415,-0.6517041,-0.16059572,0.6812544,-0.29146862,0.45551535,0.8809958,0.5027951,0.33663553,0.6350879,-0.36447638,-0.4923145,0.07586494,0.5262135,-0.7182545,1.0049559,-0.66375226,0.30544838,0.3748342,-0.3377892,-0.37987244,-0.38333184,0.20530246,1.1088005,-0.11615485,-0.07161886,0.9471393,-0.67209554,-0.14061895,-0.9429354,-0.43312103
http://dbpedia.org/resource/Ottawa_Fury_FC,0.6909094,-0.9879143,-0.6015928,0.22035259,-0.5387499,0.23308125,0.4619112,1.0218084,-1.1712065,0.47863957,-0.1958378,-0.22828703,0.35379443,1.0585839,0.7727043,-0.2638451,0.50758314,0.038904335,0.48432744,0.8724248,-0.8408792,-0.43085536,0.35302365,0.9820195,-0.37427866,0.7109494,0.38345617,-0.572226,-0.07108171,0.22003154,0.2587467,-0.6270507,-0.10210543,-0.33530685,-0.18405505,-1.5509361,0.6940178,0.3158998,-0.23589495,-1.0988569,-0.7724534,-0.54551303,0.39031467,-0.34634846,0.6794804,0.80398476,0.77639437,-0.51028734,-0.8098307,-0.08214683
"http://dbpedia.org/resource/Żołna,_Pomeranian_Voivodeship",0.4469255,-0.8134825,-0.6757118,-0.45920512,0.04926884,0.3910352,0.5627086,0.0018066568,0.17760651,-0.22017962,-0.11499546,-0.30171293,0.42950544,0.08564486,-0.24441716,0.64215314,0.06730837,0.31818062,0.4508293,-0.0015220077,-0.2713733,0.20581843,-0.19049454,0.12120189,1.0651661,0.9784531,0.026687944,-0.65101635,-0.837814,0.71386045,0.1729631,0.79627377,-0.69520426,0.3522414,-0.4144879,-0.43779567,0.6976821,-0.09736885,0.7739834,0.29209003,-0.42055964,-0.36917123,0.5335303,0.44176394,0.5927836,0.09751279,-0.40209115,-0.91944927,-0.33514506,0.06366427
http://www.wikidata.org/entity/Q215627,-1.7919972,-0.16117112,0.9927512,0.045878097,0.038777202,2.1224759,-2.0793672,-1.408545,-1.1208099,-1.3266193,-1.8046153,1.2938913,-0.1692321,-1.9622775,-0.22214715,-0.18777968,-0.2774277,0.4930776,-1.5193081,0.6157911,1.4362015,-0.108797856,-0.773009,0.2680282,0.9258087,0.13659142,-1.4897552,-0.03807415,0.3620771,1.8151964,-0.16609506,1.1843741,-0.22739778,0.7594128,-0.9507283,0.7924733,-1.8647015,-0.051699616,1.1251415,-0.18917423,1.7628946,-0.97591174,-0.21556096,-1.1567914,-1.5080364,-1.3949473,-0.054478426,1.9313499,0.77694345,0.19076699
http://dbpedia.org/resource/2008–09_Ipswich_Town_F.C._season__Chris_Casement__1,0.30727217,-0.32765388,-0.51515794,0.28923756,0.85490096,0.9257049,0.20028944,0.12640607,-0.29713455,0.2446552,-0.8452618,0.89067674,0.654183,-0.8391065,0.5506654,0.8149179,0.38131633,0.16333501,0.66673297,-0.21105714,-1.1680185,0.46654108,-0.2429805,1.1510212,0.03818379,-0.28235507,-0.88899034,-0.82205045,0.5592413,0.25587332,0.09486373,0.90906924,0.41961738,-0.1913514,-0.6463438,-0.7164271,0.21019785,0.06285064,1.3063818,0.031903993,0.15067995,-1.1937898,1.2775213,-0.9233616,0.6813275,-0.4273655,0.5374118,-0.10748827,-0.60233307,0.27318957
http://yago-knowledge.org/resource/wikicat_Liberty_X_albums,-0.2949086,0.792823,0.99038047,0.14036874,0.18193543,1.1786494,-0.061376713,-1.1182595,-0.8310875,-0.20272915,0.37661055,0.11013385,-0.048770007,0.10943593,-0.9434887,-0.61807007,0.6065651,-1.0395727,-0.73559076,-0.31931692,-0.0066646743,-0.009346851,0.2663607,-0.19985083,0.20801324,-0.37451586,-0.50995296,-0.28110862,-0.27901962,-0.08441717,-0.09908727,-0.19581942,1.0146847,0.83862436,-0.4996009,0.7075089,-1.4547273,0.07240077,0.74812293,0.092640646,1.2096574,0.68417585,-0.124755085,-0.10303939,-0.3481345,-0.81873727,0.030558888,0.5927768,0.09494431,0.5456769
http://dbpedia.org/resource/Interstate_865,0.6012575,-0.8850146,-0.0657932,1.320371,-0.40063432,0.19395533,0.4330262,0.50473285,-1.0254148,-0.3234736,1.2891529,0.36259785,-0.5844957,-0.34324586,0.7613647,-0.005158748,1.0992376,0.42258936,0.7910109,0.15097035,-0.5473948,-0.505753,-0.5634231,0.6383711,0.46036112,1.1835501,-0.5413022,-0.8615631,0.4125295,0.5248434,0.14909524,-0.44571987,-0.19794816,-0.16048525,-0.0649924,-0.52073693,1.0152673,0.96956277,0.72403365,0.39622018,0.10476403,-0.36876586,-0.2985612,-0.73391193,0.23046044,1.0088493,0.021031478,-1.0211645,-0.8531516,-1.0738221
http://dbpedia.org/resource/2008–09_ACF_Fiorentina_season__Vlada_Avramov__1,-0.4872359,1.1653633,-0.33838522,1.2022158,0.002855285,1.2276974,0.41438818,-0.40399304,0.45914245,-1.058405,0.04110155,0.10284924,-0.8144231,0.63528585,-0.18427595,-0.58599156,-0.09283664,-0.7448636,-0.10497424,-1.2523841,-0.10838463,-0.3023081,-0.46645603,-0.058403987,-0.14204079,0.1264356,-0.34679246,-0.35881904,-0.5681155,0.7889186,-0.5602155,0.70927536,-0.547137,0.96733177,-0.757643,-0.22206837,-0.423337,0.35568112,-0.53207636,-1.1432678,1.0556546,-0.04635984,-0.54152596,0.15050109,0.50582576,0.35246706,0.09190091,0.5603758,-0.38722128,1.4002441
http://dbpedia.org/resource/Japanese_destroyer_Hatsukaze,0.323775,0.8705955,-0.38944095,0.40196547,-0.58759475,0.8090169,0.26371977,-0.58250993,1.2381974,0.5395325,-0.32929403,0.030565059,1.202949,0.6850072,0.15355456,-0.34485328,-0.40974402,-0.285041,0.37351194,1.0674771,-0.50093037,-0.7004474,-0.21448433,0.7165798,0.13111629,-1.0431216,0.29510477,-0.5020733,0.34839544,0.4665183,-0.5993789,0.69560117,-0.44240332,-0.32921487,-1.0921576,-0.24669766,0.10388993,-0.8633347,0.38009375,0.29352278,-0.3993857,-1.0840318,1.2648906,-1.0974101,0.57103705,0.31993455,-0.39362675,-0.6595646,-0.2995608,0.54310066
http://dbpedia.org/property/timezone,0.9100508,-0.5716751,-1.335933,1.4273444,-1.8281775,-0.37408486,0.8424806,0.80489427,-1.8071475,0.89907795,1.7343159,-0.3117106,-0.5256904,1.0423394,0.3397932,0.8445462,0.7400622,-1.8738703,0.6243273,1.5565413,-0.81769526,-0.8637447,0.77108014,0.918896,-0.96878034,-0.42337012,-0.83195037,-1.6832778,0.67932844,-1.4494071,-0.6494499,-0.5184599,0.054598372,-0.47497514,-0.90598494,-1.0150534,0.9389506,-1.2928816,0.8687929,1.0870149,-0.6440783,0.1567199,0.87992364,0.8304104,0.68504727,1.5040257,-1.9244688,-0.9068894,-0.82369137,-0.36346394
http://dbpedia.org/class/yago/WikicatIrishMusicalGroups,-0.25315392,1.3386254,1.1974791,1.3819585,-0.13326417,-1.2453023,-1.1095511,-0.59484935,-0.6894643,-0.7451555,0.6493519,0.18350238,-0.29142764,0.32032248,-1.3365246,-1.2218451,0.17358711,0.46922997,-1.0759963,0.37954307,1.3201302,0.20991969,-0.22327352,-0.21823958,0.13885841,-1.4072441,-1.0858371,1.8952459,-1.2086116,-0.9510301,1.0078986,0.14497386,-1.1291128,-0.6926234,-0.923713,0.48746532,-0.93885094,-1.1062229,-1.1891211,1.5317204,-0.37970105,0.1094433,-0.5707172,-0.0791322,-0.2238732,0.25885233,-1.2645487,1.2723784,1.2797632,0.99640185
http://dbpedia.org/resource/Dejan_Karan__CareerStation__7,0.03855269,0.37161008,0.1610716,-1.0542086,-0.24098793,-0.49777195,0.27844173,-0.7918926,-0.4443463,1.0435793,-0.6298604,0.89612633,-0.44147822,-1.3365823,-0.36622262,-0.22555049,0.08721726,-0.40165117,-0.1072387,-0.0037520113,-0.15404223,-0.4799193,0.41201425,-0.7641907,0.19651929,-0.3089609,-0.46879226,-0.28157324,0.94603086,-1.1482059,-0.6223859,-1.0443676,0.2682625,0.40636688,1.0105793,-0.15377657,0.05133361,-0.36993533,-0.60417247,-0.56497484,0.5351479,0.9322573,-1.2008293,-1.1412342,-0.22987598,0.2722358,-0.70724994,-1.0466619,-0.058449734,-0.089157656
http://dbpedia.org/resource/Department_of_Islamic_Development_Malaysia,0.42684498,-1.0577259,-0.5571033,-0.7158952,0.0360682,-0.027208574,0.52121043,1.0041376,-1.2045408,1.0354339,0.28389165,0.37940803,-0.6923508,-0.2476217,-0.6316991,0.100655645,0.31823805,-0.15580304,0.54173166,0.39967775,-0.99474204,-1.0281565,0.478897,0.664737,-0.27881074,0.36949918,-0.03661417,-0.45801756,-1.148844,-0.47350615,-0.97593576,0.40445173,0.63699055,-0.915573,1.2868475,-0.3166748,0.0849808,0.2335931,-0.13824996,0.7949673,-1.3345728,0.651347,-0.41452706,0.7725844,0.6192846,1.6043177,-0.3993538,-1.0450573,-0.55283386,-0.24748091
http://dbpedia.org/resource/Fradl_Shtok,0.04773478,0.08517382,-0.07851115,-0.35784823,-0.23272574,-0.77390593,-0.14913297,-0.21852882,-1.3165879,0.5844479,-0.03970401,0.59413904,-1.3523351,-0.45164934,-0.8672953,0.5027245,0.18745482,0.8279401,-0.017399307,0.89555204,0.008926,0.4286154,0.08406258,0.25678384,0.4550117,0.6022411,-0.15669674,0.07917873,-0.40234393,-0.2852521,-0.16689649,0.58581114,-0.22477674,-1.0840195,0.2175921,0.21807308,-0.07117615,0.37466106,0.88140947,-1.392726,-0.02232041,0.94008243,-0.7068435,-0.3696829,-0.14514993,0.88973117,-0.9751538,-0.34837577,0.11160797,-0.4302672
http://dbpedia.org/resource/S._S._Van_Dine,0.23846915,-0.4223827,-0.2126712,0.309857,-0.04120004,-0.3294363,0.6167673,0.444915,0.272153,0.083783306,0.9652119,-1.0614114,-0.3491185,1.0660304,0.10675791,0.14681837,0.24665652,-0.21027376,0.17889549,-0.15231925,-0.20187306,0.47779956,0.23539487,-0.065776244,-0.31614622,1.2702771,0.3237434,-0.2592362,0.9096879,-0.42343342,-0.07453446,0.24199846,-0.011404192,-0.094576806,1.0863432,0.0006778263,0.11681278,-0.36331987,-0.5022635,-0.5237401,-0.3257666,0.8348894,0.71916157,0.196253,0.12168224,0.25597835,-0.2906576,-0.18741526,0.04890483,0.38294306
http://dbpedia.org/resource/Joseph_M._Papp,-0.7172064,0.0007764136,-0.63769317,0.38285786,0.20226388,0.94166726,0.18427496,-1.1216947,-1.4806689,0.32480708,0.91110826,-1.1489344,1.7238848,1.5894536,-1.5488333,0.34996507,-0.15166299,0.5073108,-0.17646962,-0.05227709,-0.6790817,-0.046413306,-0.42047355,0.49683294,1.6524392,0.6127374,-0.14136781,0.70581955,-0.19271894,-0.7162517,0.16249219,0.04708866,-0.1466608,-0.14190271,-0.9869204,0.5802722,1.3009586,-1.0560907,-0.04947402,-0.34688953,0.481409,0.20375991,-0.01444355,-1.2737817,-0.70960957,-0.44793,-1.2763131,1.0019778,0.9183787,-0.0699715
"http://commons.wikimedia.org/wiki/Special:FilePath/The_Inn_On_The_Green,_Radbrook_Green_-_geograph.org.uk_-_864910.jpg?width=300",-0.2265656,-0.27591893,0.2581358,-0.93073964,0.32397524,0.76905566,-0.29859564,0.817347,-0.27643988,-0.2765483,-0.95454925,0.25161237,-0.3850119,0.32977805,-0.3373654,-0.2088645,0.14108668,-0.32035735,-0.27282444,0.21738322,0.2159382,-0.29155207,-0.32569036,-0.2568125,-0.8300947,-0.30290622,0.2882727,0.25477415,0.9081313,-0.20000638,-0.9247944,-0.8868013,0.06964542,0.15423939,0.9772879,0.14853753,-0.28290161,0.32019258,-0.2493147,0.30444366,0.28120112,0.27141136,-0.3625583,0.8720819,-0.2872967,-0.28873745,0.31032938,0.23936018,-0.50047123,0.115293756
http://dbpedia.org/class/yago/Group100031264,0.72361505,0.23595026,0.49677873,0.031079227,-1.107954,1.1346309,0.5649458,-0.38095,1.1074901,-0.5791898,-0.34610227,-1.5380938,0.6969471,0.11342306,-0.49123874,-0.7272851,-0.69478,0.551457,-0.6200962,1.4846576,0.6080102,0.6282932,-0.9835757,-0.22098419,0.02588536,-0.83729255,0.25406244,0.6713237,-0.72080415,0.16866466,1.3306373,-0.16082816,-1.0645542,1.2261765,1.0813007,0.42857033,0.6612653,-0.8267702,-0.39936355,0.88849133,-0.14912632,-1.6047479,-0.5367309,-0.13148437,-0.3678015,-0.7070269,1.1151091,1.0829675,0.67548215,0.6587797
http://dbpedia.org/class/yago/District108552138,-1.5652245,0.65657234,0.8505249,0.25355938,-0.1661375,0.48894888,-0.8015724,-1.2438232,0.66865903,0.4289066,1.524766,-0.8995704,-0.20874827,-1.2498295,0.1566454,0.80043644,0.4798658,-1.5266716,-1.711608,-0.6603928,2.696273,1.0207514,0.56818247,-0.36376393,-1.4648378,0.2958618,0.95420843,1.6291339,-0.28129432,-0.6738869,0.6804657,0.29590914,1.3818004,-0.15753397,-0.6288077,1.4043374,-0.49305347,0.5930176,-0.23949723,-0.32961443,0.2837607,0.5139041,-0.667422,0.84590155,-0.88958126,-0.5369698,-0.09346295,0.49434742,1.0494101,-0.11697261
http://www.wikidata.org/entity/Q2188189,-0.41701266,0.3972034,0.12857999,-0.37817144,-0.58627135,0.4181148,-0.5246418,-1.1083134,-0.56144875,0.02880121,0.1072689,0.7520795,-0.22365883,-1.1265174,-0.1280842,-0.08522048,0.26592842,-0.6513763,-0.60049033,0.05445066,0.73415637,-0.5356007,0.2940456,-0.25388706,-0.47162098,1.1017231,-1.103715,-0.38378116,0.3498526,-0.14511874,0.81352687,0.33807045,0.65639675,-0.75431514,0.60581756,0.77597284,-0.28438932,-0.1640314,0.5665298,-0.6354066,0.057268787,-1.1215903,-0.03749753,-1.1114763,-0.43920863,-1.2926592,-0.17174485,-0.4088279,0.53959143,-0.76327664
http://dbpedia.org/resource/Alloa_Athletic_F.C.__Andy_Graham__1,-0.31865647,0.76672477,-0.43473947,-1.0275557,1.015224,0.75981337,-0.17344876,0.55481803,-0.10212544,-0.2474621,-0.08268234,1.1413084,0.119327724,-0.52308,-0.7273788,-1.1136513,0.40695697,-0.26357436,-0.2176191,-0.7220583,0.5142739,0.75694567,0.2707091,0.40511885,0.15800622,-0.98887426,-1.1612217,0.025239553,0.12174081,0.7648908,0.70674866,-0.43489286,-0.58296496,0.08986177,-0.78674746,-0.4552588,0.4203466,-0.12520228,-0.69385046,0.50838715,-0.022067774,-0.14860927,-0.8178952,-1.1482565,0.27144673,0.49163383,1.1133885,0.19605866,-0.44500992,0.5268995
http://www.wikidata.org/entity/Q1914636,-0.81960666,1.1466177,0.23467696,1.0071591,0.09761908,-1.0616907,-0.099255,-0.09815046,-0.61307514,-0.42591655,-0.8510998,-0.8386698,-0.060401592,-0.63786453,-1.0972837,-0.8816533,-0.854368,-0.47077706,-0.44536635,1.1487739,0.21915773,0.83581805,0.25275406,0.08170148,1.5556756,1.1260921,-1.5693074,0.260176,-0.53246397,-0.18593824,0.97048,-0.5597505,-0.62161815,0.76590127,-1.1186887,0.27495137,-0.73408496,-1.1957693,-1.4994376,-0.08543019,0.89200056,-0.070168026,-0.30368558,-0.094645314,-0.70580405,0.4302643,-0.10280942,1.8274732,0.43589437,-0.34121642
http://dbpedia.org/resource/George_Randolph_Frisbee_Jr._House,0.004534213,0.7959703,0.003579291,-0.4081216,0.8480836,0.23849216,0.086390585,0.60929996,-0.6276336,-0.7448552,-0.36542115,0.5504224,0.9105138,0.0042032665,-0.7088979,-0.80020803,-0.0026421268,-0.6181463,0.6247973,-0.8822622,0.63127553,0.9686519,-0.42166236,0.030184302,-0.59293807,-1.0515606,-0.7544444,0.051469874,0.4098139,0.19748673,1.433029,-1.2725259,-0.85474104,-0.5925501,-0.28897554,-0.61466867,0.65533364,-0.8632464,-0.25605762,0.53145254,0.09784245,-0.8394619,-0.8445434,-1.4494474,-0.0067348196,1.2604028,0.7639395,-0.5967997,0.5952441,1.309063
http://dbpedia.org/resource/Ranger_5,0.63651395,-0.048058406,-0.5590066,-0.46509176,0.1455189,-0.6125121,0.68663394,0.87522626,0.062084474,1.1039219,-0.9440036,-0.04274457,-0.23969312,0.5613346,0.18892208,-1.4714353,-1.2471794,-0.52539915,0.579907,1.2954059,-0.79386955,0.04145182,-1.1021568,0.5290017,-0.9696029,-0.39611596,-0.0006401822,-1.552143,0.13006996,0.43772224,-0.51895523,1.1656741,0.051555734,1.187664,0.5284981,-0.11341677,0.28172418,1.604463,-0.51987654,-0.12105718,0.77867705,-0.32068288,-0.30339828,0.115725204,-0.058990937,0.3283149,-0.24876978,-1.4588593,-0.783592,0.098697715
http://dbpedia.org/resource/Canterbury_RFC,0.41819334,0.4125362,-0.44734374,-0.086044595,-0.334151,0.9618202,-0.122396246,-0.9869408,-0.49123466,0.17417757,-1.8235618,0.052660916,1.1820614,-0.7985036,-0.7841695,-0.86180496,0.10879473,-0.9473445,0.4713718,0.14128204,-0.85425216,0.10695355,1.2344851,0.9552017,0.7798616,-0.19008894,-0.115809485,-1.0731274,0.32247287,0.4000758,0.23565683,-0.061242577,-0.2374561,0.5576788,-0.8059888,0.19715887,-0.35583273,-0.8665993,-0.8968,0.12375617,0.27720973,-1.1213104,-0.6980287,0.26043075,1.8373666,0.28085497,1.9997497,0.6036655,-0.5355955,0.81473804
http://dbpedia.org/resource/Phil_Trow,-0.020194048,0.42414305,-0.27119198,0.6171434,-0.27531075,1.2128134,0.35698706,-0.8762818,1.7063913,-0.4509486,0.55561024,-1.1957927,-0.14192715,1.7810569,-0.43597052,-0.5966866,0.36016762,-1.0035707,0.22739625,-1.5609419,-0.047473244,0.21925166,0.0035414454,-0.4652928,0.8695415,-0.50635034,0.19791658,-0.88126314,0.61379844,0.47336775,-0.42492354,1.2393142,0.353416,0.4026661,-1.9407097,0.04615234,-0.3535693,-1.2310045,0.057363752,-0.78285235,0.62907934,0.6312664,0.3554511,0.052711572,0.21541817,0.3905043,-0.61352813,0.45213848,-0.19269893,1.4017061
http://dbpedia.org/resource/Gareth_Edwards_(Berkshire_cricketer),-0.21444455,-0.85993624,0.03951871,-1.0436102,-0.1557259,0.32967946,0.42420766,0.29608837,-1.1196874,0.33353204,-0.4218772,0.18563591,-1.134271,0.33839086,-0.13140637,0.3686613,-0.06595118,0.8732957,-0.17203967,-0.42799866,0.021539811,-1.1271502,-0.45960987,0.8266641,-0.13814896,0.6708919,0.4600449,-0.16675782,-0.78001416,0.5071738,-1.1734617,-1.3457311,1.1255989,0.092211716,0.0011968741,0.055247504,-0.26723143,-0.328651,1.5171078,0.7122549,-0.45752653,-0.023997854,0.105200805,0.5839778,-0.33298954,0.05475962,0.5743506,-0.24589202,0.4826434,-0.21995415
http://dbpedia.org/resource/Rosemount_Rec_F.C.__Sam_McCullough__1,0.21033698,-0.021697607,-0.19997795,-0.88328964,1.0541569,0.3285784,0.3095733,0.21355772,-1.2363954,-0.12305656,-0.2107966,-0.02580411,-0.4649255,-0.33756542,-0.70267695,-0.20322607,0.5746979,0.87889874,0.20477769,-0.011308478,-1.14585,0.4284343,0.331653,0.2076433,0.7506483,0.34518138,0.32288527,-0.18504472,1.2410074,-0.8159873,0.12619044,0.098070584,-0.49138552,0.19866508,-0.2854027,-1.1191804,-0.065239795,-0.56117576,0.42811134,0.011780317,-0.437674,-0.61775213,-0.11580652,-0.5501255,0.31106043,1.0747303,-0.8349659,0.06186482,-0.112068884,-0.68803316
http://dbpedia.org/class/yago/WikicatDuchessesOfJoyeuse,-0.732307,-0.3251838,0.80397123,-1.3020743,0.57953525,1.7637587,0.22880423,-0.2174512,-0.533321,-0.8942911,-1.1276975,1.4594774,-1.0924268,0.43187353,-1.4990755,-1.4472108,-1.5932523,-1.0551882,-1.5356741,-0.35193092,1.4712381,-0.44095144,-1.2579733,-0.1019386,1.6836426,1.9151561,1.9528816,1.0564537,1.2641538,-0.6642692,1.132998,-1.2619882,0.51957536,0.9964889,-0.9665626,0.999423,-1.5289903,0.9809134,-1.1752956,0.94025594,0.41756058,1.0416225,0.33049086,1.3675196,-1.5064036,-1.3538265,-1.787267,1.4721067,1.2064563,-0.62784994
http://dbpedia.org/resource/January_Jones,0.4527012,0.09798067,-0.39931598,0.012676355,0.22572453,0.64967704,0.49762306,-0.15454862,-0.66800314,0.33216593,-0.18201748,-0.33324257,0.33878332,0.80256265,-1.1327968,-0.03210912,-0.6581013,1.1101325,0.21714182,0.6549484,-0.380505,-0.45984358,-0.81475604,-0.3277187,0.521991,0.7456311,0.7286693,0.35001555,0.4946465,-0.7462676,-0.34577832,0.6407028,0.12106241,0.37278768,-0.07891776,0.14977382,1.0739654,-0.70636725,-0.068512,-0.2804891,0.38359421,1.1288366,0.47037032,-0.62017614,0.32383835,-0.4796775,-0.4786329,0.84812254,0.2552012,-0.2588158
http://dbpedia.org/resource/Manuel_José_Othón,-0.18419826,-0.47899452,0.27112696,-0.8450014,1.2167181,0.2805941,-0.15385671,-0.7989072,-1.216694,-0.24885644,-0.3062027,0.1290019,-0.99397856,-0.011334241,-0.6454809,-0.32541838,1.1744732,0.6677221,-0.21427226,1.0398042,-0.6388368,1.065655,0.05468129,-0.24474534,1.1974787,-0.0986241,0.4991731,0.3012925,1.0547664,-1.1848655,0.21538046,0.0852821,-0.71552414,-0.37055573,0.00981975,-0.5563749,0.5780161,0.88787764,-0.35164687,0.610913,0.20932311,-0.46557274,0.4650716,-0.07626058,0.33426863,1.1550044,-1.2068219,0.27331752,0.16123337,-1.1231796
http://dbpedia.org/resource/Leoba,0.74502134,0.56092685,-0.35540912,0.26757792,0.52774036,0.13240145,0.29458216,-0.18830806,0.6518203,0.44274682,1.4365456,-1.2052635,-0.22651161,0.18405136,0.14239997,0.8704934,-0.33494,-0.50217754,0.32616803,0.27222735,-0.27978283,-0.09318456,1.8095955,1.3445755,0.06569974,0.29270256,-0.7367794,-1.0593199,-0.72239673,-1.1185957,-0.9446592,-0.5074101,1.0015241,-0.3816525,-0.6975907,-0.18538867,0.33380404,1.151158,0.6603291,0.02193467,-0.78580946,0.90899473,1.1323518,-0.9380157,0.87676775,1.1997207,0.39318514,0.34101513,0.1688064,-0.71812963
http://dbpedia.org/ontology/School,-0.7702673,0.17512658,0.4842098,0.5263266,0.8879465,-0.63665587,-0.10370621,-0.12511447,-0.30069005,-0.6547529,-0.55572677,-0.82547224,0.0075875884,0.10571143,-0.17551978,-0.37485093,-0.4374385,-0.28726816,-0.9124233,0.6906479,0.32152763,-0.0110380985,-0.20999223,-0.8563549,-0.4483236,1.5709184,0.5128791,-0.24366276,-0.9025167,-0.51652044,-0.9374854,0.36302444,0.114658065,0.21379483,0.018557493,0.24742915,-0.1405925,-0.8848169,-0.50663745,-0.08644828,0.20718864,-0.8359009,-0.72371745,-0.55951524,-0.4268102,0.1458947,-0.5803769,-0.32037893,0.89223486,1.5531514
http://dbpedia.org/resource/Steven_T._Walther,0.28929222,0.12977259,-0.80667967,0.4018135,-0.36425033,-0.29958493,0.8401073,0.8130009,-0.6311672,0.576685,0.32962096,0.03307344,-0.34290585,0.4126013,0.24513865,0.5430601,0.30467752,0.2515068,0.77631354,0.3304246,-0.2531002,0.11119186,0.5080517,0.15789104,0.40351078,0.84158033,1.0937471,-0.21364754,-1.2587422,-0.058503557,-0.5907789,0.92411166,-0.33510518,-0.49873906,0.33816993,-0.91592985,0.312118,0.37828106,0.5874479,-0.23366304,-0.22344239,-0.43477142,-0.57629454,-0.9834168,0.74840826,0.61920184,-0.629452,-0.5181976,-0.637593,-0.6463175
http://dbpedia.org/resource/The_Woman_in_the_Case_(1916_Australian_film),0.11421071,-0.13041049,0.22209178,0.72200084,0.019737203,-0.5120125,1.2685021,0.7164206,-0.66760045,-1.3011552,0.015678378,-0.68129885,-0.61658585,0.7136099,-0.23705588,0.9561581,0.3796677,0.047260467,0.04339646,0.45045337,-0.3506362,0.15687126,0.68898803,0.5572465,-0.09503587,-0.5163448,-0.3422009,0.02416685,-0.02677414,-1.2000301,1.1594827,-0.025073921,0.6737417,-0.118059814,-0.167581,0.24773353,-0.6649417,0.026697021,0.8715213,0.16763097,-0.26370206,0.0047334535,0.42078313,-0.5950881,-0.370745,0.67897356,0.18681511,-0.6416453,-0.28043574,1.1838497
http://dbpedia.org/resource/Ultimate_Marvel_vs._Capcom_3,1.3155956,1.5429261,-1.2839785,-0.59364,0.70428205,-0.32424477,1.4929045,-0.021385893,-1.6336963,-0.37446037,0.95061547,-0.33534053,-0.5061884,-0.054863974,-1.284073,2.226038,0.720064,-0.34600657,0.5241641,0.7667823,-0.59161705,1.075429,0.17318393,0.34312052,-2.2411983,-1.2095313,-0.100670785,-1.2310704,-1.0778685,-1.2341859,-0.12257578,-0.59277236,-1.5260851,0.45554245,0.47435886,0.31559914,0.16192813,-1.530649,2.2620983,-1.6451327,0.026282616,0.09942567,1.420463,1.5792124,1.3885167,0.54706854,-1.0156012,1.2880087,-1.9321804,-0.36637256
"http://dbpedia.org/resource/Moussa_Sylla_(footballer,_born_1989)__CareerStation__2",-0.1933691,-0.21423176,0.29591423,-0.85835224,0.81530946,-1.3688717,0.31774995,-0.05339293,-0.4334627,1.0518268,0.50482637,0.35169965,-0.51354796,-0.8879473,0.9306583,0.21929896,0.4193731,-0.4932674,-0.28838643,-0.57233053,-0.30985677,-0.6655278,-0.015866306,-0.6128059,0.94630176,-0.026304653,0.40723464,-0.8024082,-0.16840833,-1.475442,-0.8970214,-0.6726925,0.86522365,0.033962402,0.61987406,-0.17608725,0.7945914,-0.43094996,-0.030758146,-0.22128423,-0.19850044,0.75434095,-0.022091636,-0.7812388,-0.34382308,0.28522027,-1.2042383,-0.86343455,0.19359161,-0.7271514
http://dbpedia.org/resource/Kerry_Chang,1.0002452,0.30222368,-0.97599804,1.3501812,-0.20922306,0.19029547,1.0059747,0.84906787,-0.040824007,0.6032588,-0.053975474,-0.5606659,0.24131885,-0.3448282,0.6760046,0.51730657,-0.22714326,-0.6867343,1.0882379,0.26005307,-0.5120013,-0.37259272,0.10830073,0.20991078,-1.2057955,1.392566,0.44774556,-0.6886171,0.32701847,-0.21327575,0.49280727,1.1652277,0.059209816,-0.21508476,1.1207719,0.06906565,0.46776134,0.6396347,-0.7817732,-0.036790058,-0.23074445,0.5993774,0.78802305,1.0444802,1.8714073,0.8697459,-0.24569954,0.5295293,-0.8320466,0.14691071
http://dbpedia.org/class/yago/WikicatTuftsUniversityAlumni,-0.80270547,-0.5467759,1.4005674,0.3337261,-0.1668716,-0.0068509346,-1.3835673,-0.23376706,-0.24302314,-1.2176844,1.0819283,0.0027272676,-0.00881842,-0.7075081,-0.2650247,0.9264289,-0.08259617,-0.9180432,-0.690616,-1.153259,0.76830226,0.29344627,0.3179261,-1.2908852,0.052120756,1.4326437,0.7859192,1.2935381,1.6512275,-0.07003999,0.034923874,1.7766924,-0.19078194,-0.010757512,0.62216294,1.2856933,-0.017965922,1.5556275,0.63327754,-0.32096827,0.049953125,1.6698895,-0.47402436,-0.12441232,-1.4044919,-0.5107896,-0.30306298,1.1892421,0.7287441,0.90006703
http://en.wikipedia.org/wiki/MBZP,0.10060485,0.2974164,0.23956332,0.17491677,0.28857267,0.73590255,-0.23721483,-0.7351777,0.16513118,0.7083822,0.5527984,-1.2090055,1.0318958,1.3735193,0.9385108,0.30478296,1.0569605,0.59821165,-0.2933527,-1.2532705,0.59719735,0.16109791,1.0811516,-0.14574634,-1.057618,-0.03474992,0.7198105,0.4252225,-0.29110196,0.15610416,-0.8103442,0.19259171,1.1281885,-0.72408015,-0.9070763,0.43565127,0.28965515,-0.037504252,0.7273338,-0.46336082,-0.31532285,0.44413346,0.14228623,-0.78536886,-0.32349715,-0.15711415,1.5343832,-0.0687859,0.17327148,-1.0571656
http://dbpedia.org/resource/Bhatapara,0.089934394,0.023954941,0.110377885,0.6461873,-0.36619776,-0.80773383,0.361393,0.19222042,-0.41100472,-0.86473006,0.1628991,-0.4974701,-1.0061268,0.18945092,-0.18686187,0.49716052,0.23167714,0.8458254,0.08929134,0.17213029,-0.16284843,0.12352199,0.92867464,0.32859412,0.28077775,0.23039967,-1.1540823,-0.11505925,-0.22800827,-0.44290227,0.69740295,0.06882571,0.10026674,0.15362439,0.063752666,0.44681016,-0.84948236,-0.2740935,0.3264547,-0.2943347,0.009352042,-0.81556827,-0.014506754,-0.18754704,0.014848599,0.36356848,0.9155331,-0.23128681,0.66275185,1.1338531
http://dbpedia.org/resource/John_Ryder_(bishop),0.81532234,-0.28594378,0.8659158,0.6201531,0.64882237,-1.3195243,0.95759565,0.45849878,0.51086724,0.73121595,1.5934683,0.030463964,0.08333201,0.018550072,-0.32982177,-0.21706718,0.9045041,-0.23467347,0.047898926,-0.38643092,-0.80846053,0.3183421,0.12601481,0.20409866,0.21123722,-1.31421,-0.49116194,-1.1555482,-0.2816495,-0.0565868,-1.1061975,0.997649,0.8437586,0.22978228,0.8436492,0.9465226,-0.41615665,-0.37207872,0.50776184,-0.7221608,0.22485316,-0.6024004,0.18278083,0.056404404,-0.1324582,-0.8545528,-0.9646325,-0.16821694,-0.9669499,-0.042953126
http://commons.wikimedia.org/wiki/Special:FilePath/Mandy_Moore_I_Wanna_Be_With_You-front.jpg?width=300,-0.420994,-0.17809814,0.4812972,-0.48606226,-0.22647905,-0.6718379,0.16268793,0.4138895,0.38514635,-0.45942214,-0.19484766,0.40722454,-1.3860877,-0.114772655,0.633468,-0.44283897,0.19012466,0.45101422,0.25322926,0.25654712,-0.23779112,-0.18672411,-0.44200504,-0.48305064,-0.83767855,0.13588233,0.2762787,0.39970562,0.81227773,0.40658057,-0.7943589,-1.5029236,0.1500329,-0.14590512,0.86903834,-0.60163075,-0.4842864,1.4554942,-0.8427725,0.43055123,-0.185977,1.4752295,-0.29188523,0.51246536,-0.37191918,0.17938904,0.43974885,0.49448532,-0.748773,-0.5054812
http://dbpedia.org/resource/Bagration_Bridge,0.10840544,-0.5389705,0.023334159,-0.7679606,-0.37235197,-1.0355248,-0.32780826,0.5021124,-1.1991601,1.2556413,0.036777887,0.21747984,-0.57840097,-0.5790719,0.83642495,-0.2154939,-0.3244483,0.18622084,-0.011039944,1.2932453,0.059092,-0.30806535,0.8897701,0.528809,0.38798282,0.16002649,-0.18656674,-0.013064652,-0.45071524,-0.8659876,0.2189749,-0.9271365,1.2189562,-0.1476441,0.008940033,0.16822992,1.177204,0.7295551,1.0133871,-0.34421447,-1.0159676,0.25754613,0.3304428,0.26990134,0.08297675,0.3621485,-0.92201203,0.05528673,0.20929918,-1.3243424
http://dbpedia.org/class/yago/Animal100015388,-0.5315371,1.0508807,0.70144904,-1.0433124,-0.21322362,-1.2909253,-0.7585766,-1.032939,1.0231109,-0.8094128,-0.038753606,-0.47839785,0.5961385,0.8061382,0.28565967,-1.1959116,-0.47768787,-0.9375089,-0.6195447,-0.88491553,0.69422686,0.92404944,-1.4310522,-0.94500595,0.3355064,0.88383085,0.46023694,0.9106055,0.10568678,0.53549093,-0.69283265,0.8613696,-0.18318209,-0.23769158,0.6762519,1.1490252,-0.095301695,0.65341467,-0.8499796,-0.30952176,0.012548656,1.3173385,-0.124330096,-0.8393957,-0.8378615,-1.5980823,-0.0047968966,-0.01542364,0.51928914,0.73906887
http://dbpedia.org/resource/Jiří_Parma,0.5112122,-0.49985582,-1.7529467,-0.8337277,-0.2011762,0.7689034,0.53203076,0.22347297,0.2897781,0.023639303,0.18443646,-0.9393214,0.0393357,-0.016662313,0.56665385,1.0389528,-0.18974149,-0.8264536,1.5312206,0.55420333,-0.12583682,-0.4902874,-0.6371328,1.2753077,-0.6049819,1.2739751,1.6242597,-1.7017889,0.6855136,-0.22210911,-0.7824058,0.021064477,-0.40346152,-0.0347462,-0.59926885,-1.2969768,0.4142767,0.17033775,1.0565383,-1.3909332,0.26850906,-0.6565525,1.6417645,-1.0442278,0.48828965,0.36721593,-1.5014918,-0.2039866,-1.7481282,-0.96733713
http://dbpedia.org/resource/2011–12_TSG_1899_Hoffenheim_season__Boris_Vukčević__1,0.8931182,-0.47946417,0.469031,0.46713874,1.2386229,-0.38468096,-0.46674886,-0.29676098,0.29810768,-0.32111558,-1.3647671,-0.0031447276,0.70795304,0.7383062,0.056263093,0.58092594,-1.3056058,0.9989376,-0.004214098,-0.008742092,0.35814986,-0.7861853,0.33104625,-0.52633375,0.8904944,-0.5221068,-0.6761554,0.16898999,-1.170218,-0.25799373,-0.02922227,0.63552487,-0.8617904,0.12378134,-0.016004894,0.31276834,0.29349887,0.04017245,0.22166796,0.84175617,-0.37344545,-0.6271637,0.94073504,-0.17991257,0.621819,-0.6693274,0.79754806,0.69750166,-0.54019004,-0.26314005
