Relation,Dim_0,Dim_1,Dim_2,Dim_3,Dim_4,Dim_5,Dim_6,Dim_7,Dim_8,Dim_9,Dim_10,Dim_11,Dim_12,Dim_13,Dim_14,Dim_15,Dim_16,Dim_17,Dim_18,Dim_19,Dim_20,Dim_21,Dim_22,Dim_23,Dim_24,Dim_25,Dim_26,Dim_27,Dim_28,Dim_29,Dim_30,Dim_31,Dim_32,Dim_33,Dim_34,Dim_35,Dim_36,Dim_37,Dim_38,Dim_39,Dim_40,Dim_41,Dim_42,Dim_43,Dim_44,Dim_45,Dim_46,Dim_47,Dim_48,Dim_49
http://www.w3.org/2000/01/rdf-schema#subClassOf,0.6825806,-0.07982844,1.0645425,-0.4701288,0.45202798,-0.33398938,-1.2240137,1.6599499,-0.47880283,-2.198889,0.34044534,0.73734957,-0.23862056,-0.7783489,0.60931414,-0.41672534,-0.2163425,0.73942226,0.8925936,0.31428254,-0.26793662,1.2252352,-1.0399985,2.1136284,0.6785718,-0.9631918,-0.9411377,0.045622442,1.0227865,-1.0088661,0.12716894,1.4867855,-1.229889,2.2901487,0.78687453,1.7852472,0.18231772,0.20637575,0.06939341,2.2095163,0.6156783,0.8397471,1.4314581,1.9728526,2.263941,-0.069574654,-0.6561666,-0.5789709,-1.8823935,-1.576779
http://www.w3.org/1999/02/22-rdf-syntax-ns#type,-1.3398774,1.0265479,1.609916,1.0453264,-0.073160455,0.11638935,-1.8983785,-0.6806244,0.23785256,-1.9368104,-1.1337684,0.96482456,0.025883242,-0.7572635,-1.0262047,-1.047828,-0.7383377,0.30609956,-2.7228043,0.24184462,1.7989532,0.596027,-0.87500536,-1.7401456,1.1016107,-0.17490596,-0.7461904,0.8817223,-0.50718087,1.1376125,0.81483287,0.08012175,-1.1801476,1.0586878,-0.29876825,1.7179599,-1.2629105,-0.15872113,-1.1465794,0.5164811,1.642719,-0.002421523,-1.2001344,0.19047137,-0.8982548,-0.9695153,0.27985916,1.3878762,1.9469075,0.5054111
http://www.w3.org/2002/07/owl#equivalentClass,1.4294567,2.4551961,0.3008909,-1.2565097,1.0778564,0.012083253,-1.070584,-1.0116746,-0.21373983,0.8521668,0.12150313,0.35047182,-0.67807084,0.40862596,-1.9318631,-0.59244287,1.2138157,-1.4576778,-0.30970687,1.6746193,0.58644533,0.05515862,1.1059132,-1.0399739,-1.7407036,-0.7801855,0.5681801,-0.6218938,0.017743086,-0.6770753,0.081481405,-0.98428655,0.79596895,0.052740376,-1.7097591,1.2318081,-0.48116434,-0.025135051,-0.5297055,-0.38344133,-0.019319506,0.047378313,-0.33705446,0.82989705,-1.125802,0.9012473,-1.7031566,2.081117,1.5481803,-0.00061609765
